3327 64
1422 -0.37911108 0.59325844 -0.3001443 -0.11630582 -0.35242176 0.017814334 0.12542018 0.2272255 -0.42867574 -0.20412013 -0.058205605 0.14273119 0.39029172 -0.11652996 -0.21192296 -0.25373802 0.016795864 0.26912537 0.102638945 0.1829936 0.23843321 -0.40316853 0.15187573 -0.12629469 -0.36121926 0.15771513 -0.42829737 0.20124337 -0.3111836 -0.20431887 0.095212944 0.025389073 0.83791614 0.04469218 -0.11826875 -0.20099115 -0.14970997 0.18692702 -0.12563558 0.07219903 -0.48821065 0.16364054 -0.19038479 0.40559092 0.13954899 0.100893885 -0.36127642 -0.26980376 0.0033773663 -0.36868745 -0.0025693828 0.43851924 0.6086774 0.21555395 0.2510859 -0.42995754 -0.6042046 0.26516715 -0.61842066 0.9345525 0.1208252 0.045026693 0.06069054 0.031233037
582 0.08753854 0.6765087 -0.4360677 0.15353146 -0.72281027 -0.068837754 0.45264155 -0.19118614 0.26335645 -0.41433755 -0.34789205 -0.027789628 0.6433629 -0.38478112 0.73510486 0.30345532 -0.38503894 -0.0606239 -0.31614506 0.36131796 0.64182276 -0.19332021 -0.0037370697 -0.23138198 0.031987578 0.040845938 -0.24458419 0.3838633 -0.26637626 -0.4420875 -0.21628147 0.117407516 -0.71685475 0.42091203 0.3545144 0.032142296 0.0052050594 -0.3570656 -0.50649923 0.8399551 0.57872766 -0.28348544 0.409089 -0.08268917 -0.021194126 0.6773781 -0.30453515 0.30590028 0.5722424 -0.15150988 -0.5716082 0.31250003 -0.47895092 0.5345759 0.2249482 0.41442493 0.46962288 0.618386 0.008362721 0.19729804 0.13795033 0.6218009 -0.27191848 0.21371958
1214 -0.05538575 0.54162616 -0.2590994 -0.35347444 -0.15475968 0.09274434 -0.25182104 -0.19532056 -0.004680295 -0.04536489 -0.060707085 0.27458808 0.17772064 0.010337103 -0.12977546 -0.06185327 -0.12471422 0.38050473 0.20778675 0.39866048 -0.30596024 -0.46559867 0.06863306 -0.5106876 -0.45936558 0.6804065 -0.56604725 0.5832547 -0.16328114 -0.18685074 -0.24003994 -0.3171286 0.9127764 0.25872216 -0.024829779 -0.4158917 -0.25567552 0.64625156 -0.3741341 -0.059233557 -0.41622555 0.0020172892 0.13322899 0.56618875 0.13800593 0.062058616 -0.681144 -0.40627238 -0.077914245 -0.19044061 -0.45300728 0.32828182 0.78410155 0.46913818 0.21760476 -0.21507224 -0.7292786 0.2700421 -0.5537456 0.8847749 -0.051114097 -0.058914963 -0.15643033 0.11138469
2782 -0.030729143 0.6703993 -0.20495947 -0.53284675 -0.052861296 -0.003450102 0.1622353 0.04237428 0.06651723 -0.20455506 0.25130454 0.24162528 0.7042382 0.20585707 -0.15625279 -0.4364617 -0.05288848 0.46522877 0.15604308 0.49317506 -0.13257886 -0.40495762 0.16291828 -0.35631612 -0.48943508 0.7140703 -0.24456555 0.012202328 -0.34959558 -0.30967113 0.13364226 -0.18136352 0.83992606 -0.0047985953 0.27254215 -0.39967078 -0.17360835 0.53967476 -0.42360082 0.34155822 -0.44285023 -0.103791066 -0.178824 0.518216 0.13476023 0.000536017 -0.5823507 -0.5152788 -0.05636243 -0.25140887 -0.2458133 0.013859174 0.5367868 0.31001768 0.43072948 -0.25486657 -0.8097529 0.021163216 -0.7534942 0.7062133 -0.10948306 0.14307329 0.18035701 0.17285427
1625 0.1450414 0.6767405 -0.27026725 0.24692932 0.6009516 -0.68716055 0.04410107 0.40636504 0.008921774 -0.16444261 0.2719435 -0.04992972 0.56550527 0.14555483 0.3430823 0.28129724 0.12568992 0.0021166021 -0.2542905 -0.28543833 0.40179077 -0.17074215 -0.18515703 -0.026723307 -0.23689146 0.34214878 0.1453241 0.31289175 -0.36366567 -0.39645213 -0.43562874 -0.28738832 1.076845 -0.16527107 0.11172603 0.110064805 -0.45149446 0.80814373 -0.047462903 -0.2272529 0.004182707 -0.108733475 -0.37565354 0.003624922 0.093595766 0.016079107 -0.73567355 0.42315367 0.04451726 -0.6733565 0.13628745 0.5300375 0.14955533 -0.069890425 0.3695486 -0.15591975 -0.6300975 0.30164868 -0.10191468 0.043821078 0.101484865 -0.038470566 0.3454286 0.3646668
1620 -0.029653315 0.12715341 0.40827546 0.09092816 -0.69545573 0.27919203 -0.31911105 0.574862 -0.19629557 -0.62965685 -0.08491976 -0.26734057 0.35224068 0.009321046 1.1395588 0.40746325 0.3306219 -0.033043113 -0.37393454 0.37635297 0.13450879 -0.26941687 0.2925543 -0.95007354 0.07659829 -0.03785254 0.58039707 0.43996686 -0.5696772 -0.4130693 -0.42672852 -0.7442333 -0.14133449 0.07540231 0.93368113 -0.4578042 -0.18733451 0.28475437 -0.06898517 0.41138577 -0.04011997 0.119020686 -0.14383842 -0.3773315 0.35001555 1.2404418 -0.284103 0.4973855 0.39946395 -0.050811347 -0.45474038 -0.11906368 -0.14593875 0.30020702 0.58483726 -0.08778184 0.11977289 0.06502874 0.39503342 0.5219312 0.048193894 -0.123638354 -0.614538 -0.35486507
541 0.17884605 -0.014078247 0.16537905 -0.16273946 -0.7487715 0.102079466 -0.22796616 0.8709829 -0.070360556 -0.9879062 -0.17208602 -0.45377243 0.6218404 -0.40357235 1.1036245 0.25576976 0.21270756 0.18364292 -0.8177593 0.80610806 0.37358856 0.35177234 0.016686643 0.014080098 0.16022478 0.0852358 -0.27076253 0.69631046 -0.8578293 -0.7543217 -0.30423176 -0.9359783 -0.51122284 -0.006358826 0.41539335 -0.076930486 -0.06336879 0.5059607 -0.44567817 -0.04467148 -0.08611855 -0.12935165 -0.0012855708 0.59219915 0.21561503 1.1789886 0.35236976 0.64822984 -0.39854392 -0.3601679 -0.7304339 -0.40309048 0.1987935 0.5447923 0.06544914 0.01075205 -0.02944375 0.36434138 0.4485218 0.21972235 -0.5439153 0.557167 -0.46441382 -0.4939074
755 -0.17285502 0.4504517 -0.3982744 -0.4243734 0.33175707 -0.11163292 0.2165099 0.2512443 -0.14867626 0.16026025 0.04549057 -0.27098987 0.84056795 -0.3104161 -0.106034696 0.34467855 0.0175377 -0.020281715 -0.34132767 0.20437814 0.42049566 -0.042339955 0.21216287 -0.5946164 -0.7668648 0.48077697 -0.47403347 0.1839549 -0.46017116 -0.055765927 0.30912074 -0.049892057 0.4739939 0.06022293 0.0024611687 -0.16950531 -0.047184236 0.44089177 -0.07854194 0.15158889 -0.2458073 0.37490445 -0.005644483 0.60060084 -0.07371292 0.24750273 -0.22936687 -0.39796087 -0.3407597 0.26978597 -0.11146143 0.14204408 0.8199518 0.36112127 -0.10552645 -0.23542857 -1.0743243 0.49328443 -0.5786731 0.45445487 0.2583778 -0.13409345 0.37612814 0.11261193
3193 0.37093037 0.81050485 -0.97609645 -0.32026428 -0.596886 -0.69974214 0.40460336 0.1522533 0.059467945 -0.07689953 0.7389728 0.15899332 0.36885938 -0.9032806 0.6220255 -0.30687815 -0.22097231 -0.29512417 -0.65459114 -0.21260634 -0.7916671 0.5820904 -0.65408933 -1.1203239 0.38009274 -0.02787911 1.1104276 -0.12027054 0.42377892 -0.4147498 1.1922741 -1.1339556 -0.16875307 -0.4311268 -0.5124419 0.62279063 -0.17781125 0.063381016 -0.758638 0.42506984 0.09792152 0.28553325 -0.763517 0.56753796 0.38147986 0.5287535 0.14556076 -1.1896302 0.5449175 -0.123991296 -0.00553455 1.3853285 -0.046604794 0.109568134 0.49069223 -0.68639755 0.28843096 0.48566607 -0.5419754 0.06586627 -0.16968368 0.21823598 0.19060464 0.6376772
1943 -0.06829234 0.55992264 -0.35589626 -0.0026781948 0.0018337793 -0.17843805 0.1276847 -0.28348142 -0.3498568 -0.09510225 -0.17088336 0.060758505 0.26111582 -0.040792204 -0.19752333 -0.82098114 0.21952322 0.79481804 0.06101197 0.54331493 0.016207155 -0.25184268 0.012754121 -0.63140804 -0.09780824 0.19577256 -0.10661257 0.42710736 -0.6473908 -0.41790742 -0.32276163 -0.07963065 1.0149909 0.1912061 -0.29565412 0.32960385 -0.0015788478 0.62433624 -0.069462866 0.24145728 -0.2125644 0.0021351315 -0.120196775 -0.15222526 0.10880258 0.84547234 -0.20259252 -0.50606954 0.090483546 -0.1861 0.09464627 0.42349765 0.61012584 0.040766276 0.053317614 -0.5578543 -0.82558626 0.48955944 -0.42957887 0.5810432 0.22375861 0.027124021 0.2942189 0.0029283531
968 -0.11684431 0.44313377 -0.08111078 0.10590836 0.27110294 -0.31705666 -0.07812338 0.034559943 0.03123151 -0.49672347 -0.21720506 -0.10531984 0.65016085 0.17948814 -0.44625318 -0.2989816 0.3804971 0.4443197 0.17209558 0.0016416201 0.16003639 0.013107197 -0.30737737 -0.33876294 0.25700474 0.51348466 -0.091172434 0.23924592 -0.3163671 -0.37213686 -0.18605155 -0.26402095 1.035386 0.06464972 -0.021657757 0.07364748 0.17185421 0.49968112 -0.22226153 -0.035852265 -0.029862713 0.14682567 -0.09305439 0.05582674 0.1294935 0.77985793 -0.43030787 -0.15571876 -0.12445762 -0.47296017 -0.011668454 0.41257843 0.7853545 0.2017813 0.06877137 -0.31891945 -0.4226488 0.22358787 -0.49106386 0.6569419 0.11325693 -0.14342259 0.17733365 -0.03077812
468 0.018471476 0.059061896 -0.10052662 0.038058963 -0.5317489 -0.574173 -0.19997591 0.29966876 0.2777463 -0.4841447 0.1754019 0.04133289 0.8545122 0.2899426 -0.017254125 0.2561547 0.7136654 -0.07339163 -0.13047823 -0.4877958 0.15633705 -0.08213824 -0.45852086 -0.5153034 -0.27298984 0.8348801 -0.21554227 0.21389209 -0.16844021 -0.29947016 -0.30647993 -0.26955968 0.5444887 -0.225885 -0.2842629 -0.030986749 -0.30216166 0.3020679 0.51204664 0.36876398 -0.3065569 0.16144115 0.31323478 -0.5378613 0.05999732 0.2855599 -0.4362962 -0.0366498 -0.64695346 -0.25987494 -0.53563386 0.8663426 0.86837053 0.07378856 0.41266635 0.012923451 -0.38357866 -0.56683195 -0.6192245 0.11593393 0.39575842 0.102094956 0.5993151 -0.14933458
1896 1.0742837 -0.7425634 -0.49684513 -0.42559314 -0.07970745 -0.30683762 0.5597864 0.7681917 0.72102606 -0.05533454 0.70356476 0.43550315 -0.28463313 -0.5709497 0.63660973 1.0553821 -0.27393275 -0.8889561 -0.4229875 0.564414 0.10321952 -0.6562259 -0.5991339 -0.00038219383 0.5234365 0.3053872 -0.7249857 0.8340243 -0.64250565 -0.56516856 0.2751999 0.23119655 0.62269783 -0.27540454 0.349421 -0.16762123 0.56718045 0.07199493 -0.4519135 -0.5805535 -0.053477965 0.5729005 -0.058918167 0.16966352 0.65084225 1.0386078 -0.03916008 -0.91763157 0.029378299 -0.07571917 0.5065199 1.4475976 -0.16208792 0.04414484 0.7970287 0.44755232 0.20096457 -0.9559334 0.30860275 0.45279548 0.4454725 0.94379514 -0.6190667 0.82102174
1097 0.0038333682 -0.22039442 -0.36899304 -0.050781097 -0.08935408 -1.0163196 -0.19784577 0.097975336 0.31478018 -0.37427953 -0.36726993 0.014537996 0.6501756 -0.46134537 0.3263773 0.17328197 0.3583914 -0.11578154 -0.3659095 -0.014561082 0.55842936 -0.23826537 0.04781607 -0.5059336 0.016013501 0.48113438 -0.276278 0.3573923 0.22946696 -0.2770485 -0.1984634 -0.27218562 0.7346761 0.15101664 0.32343563 -0.06412995 -0.75184524 0.5906259 -0.08554897 0.10391582 0.07981293 0.508224 0.10423309 0.021825021 0.26034203 0.15113853 -1.0455893 0.18318908 -0.34960568 -0.62512314 0.26190606 0.35667095 0.34605113 -0.5460226 0.16059057 -0.18464369 -0.1364236 -0.6119554 -0.5357544 -0.34168306 0.11464996 0.07285435 0.53805906 0.49397048
3046 -0.52189416 -0.36740807 0.38077226 -0.11687095 -1.0157189 -0.32876727 0.17110974 0.42004213 -0.19789283 -0.81140065 -0.053443335 0.19359218 0.89483494 -0.1837641 0.74701995 0.25233874 0.23647523 -0.3952778 -0.7144239 0.44421077 -0.11526667 -0.13792227 -0.010880824 -0.26470274 0.22184901 -0.5853169 -0.7454907 -0.34118932 -1.2872262 -0.7148077 -0.048462495 -0.6145789 -0.25236902 0.3106757 0.08357328 0.42276412 -0.26962617 -0.08229321 -0.35063714 0.6329533 0.28361654 -0.25854048 0.8454455 0.14500788 0.28588936 0.02633373 -0.07267128 -0.03744867 -0.06558603 -0.061355613 -0.04904934 0.5130302 -0.48257604 0.33885127 0.3917645 -0.061700337 0.23862164 0.62460345 -0.36737052 0.62347984 -0.029884495 0.37393454 -0.34591234 1.2554567
83 -0.1756472 -0.43909654 0.78428066 0.044835247 -1.2948852 -0.10334032 0.21551998 0.29536578 0.08833169 -0.44401106 -0.39868763 -0.5280557 0.8115793 0.032335393 0.5172421 0.773142 0.03624806 -0.15723945 -0.5336798 0.24227986 -0.5981368 0.22935474 -0.27260062 -0.118800506 0.22172938 -0.35233486 -0.89044017 -0.1320908 -1.1026918 -0.5738129 -0.6114416 -0.2734356 -0.28735727 0.24355878 -0.10791451 0.089025244 -0.67028916 0.21955828 -0.29619437 0.7609393 0.7802991 -0.53764915 0.57814157 0.16336572 0.49101838 0.032197878 -0.64397454 -0.4090048 0.40524197 -0.19761549 -0.44598007 0.5660571 -0.08092545 0.4424988 0.36156687 0.8973167 -0.19525833 0.6171958 -0.5737128 0.5979485 -0.29296935 0.5276725 0.023504892 1.2267762
2646 -0.17042907 -0.123215616 0.19468614 -0.30464005 -1.1273565 -0.22600764 -0.047290247 0.19043592 -0.18813579 -0.79086816 -0.4515819 0.27662647 0.70770675 -0.2479766 0.56207156 0.6998243 -0.19620943 -0.14501163 -0.4821972 0.7138448 -0.4649954 -0.31784937 -0.107914165 -0.1386799 0.41683438 -0.36086744 -0.7021114 -0.24676967 -1.1995186 -0.93934643 -0.2807221 -0.55373627 -0.36913526 0.14859709 -0.13251212 0.6296084 -0.33239084 -0.17555512 -0.020129776 0.76976174 0.018600253 -0.115900785 0.53317595 -0.14793323 0.22540894 -0.43091494 -0.22558734 -0.46839237 -0.28501922 -0.5874958 -0.10644568 0.22209671 -0.20615014 -0.029239383 0.080039516 0.38586998 0.37966684 0.80277973 -0.25209218 0.80033195 -0.080159634 0.35170317 0.16870937 0.66666454
624 0.7304748 0.07708333 0.061376803 -0.12873936 -0.54997945 0.47541755 -0.51210046 0.2391059 0.8142353 -0.77459806 -0.10466229 0.43137625 0.32923353 0.15599684 -0.6462989 0.30204323 -0.6159793 -0.09822854 -1.2611032 0.2497158 -0.044994757 -1.1825235 0.031028578 -0.046415128 0.30499476 0.5294134 -0.6210665 0.1101876 -0.8797734 -0.2565784 0.042489298 -0.33394912 -0.21149823 1.2484804 0.28223127 0.3404115 -0.017709266 0.35054386 -0.24983034 1.1501255 0.3789121 -0.3939261 0.4586007 -0.68651164 -0.6478737 0.469646 0.18063909 0.45827204 0.10101501 -0.0023077843 -0.06721255 0.8687165 -0.9344361 0.7574787 0.56091493 -0.40232256 -0.16616073 0.6366771 -0.15590867 0.43422335 -0.05866469 0.20106548 -0.6759621 -0.11699643
667 2.119481 0.0071266214 -0.6770368 -0.4915105 -0.42273772 0.17841287 1.2442713 0.2068919 0.30747595 -0.5473658 -0.43946928 -0.87278956 -0.35871467 -0.09802898 1.1313809 0.5124851 1.1342509 0.05756845 -1.2655 1.2812924 0.28839222 -0.5800844 0.38545382 -0.27648422 -0.19651644 0.339417 0.5602229 0.6284347 0.27050152 -0.22369944 -0.12421233 -0.3221606 -0.18971956 0.6786365 -0.42519146 0.13105725 -0.1300091 0.083938934 0.48663747 -0.5267938 0.015529597 -0.06342421 -1.5157415 0.017967897 0.08819479 0.23189503 -1.2346991 -0.7192323 -0.3736415 0.014825182 -0.51687944 -0.17855787 1.9230175 -0.15939763 0.90554845 -0.42982063 1.1895155 0.7565126 -0.10081248 1.133349 0.28199086 0.16661239 0.09612099 1.0773664
2174 0.57172734 0.2766907 0.081505544 1.0858809 0.17017883 0.6428477 0.5883912 0.3404131 0.6807882 0.27267426 -0.578038 -0.11057448 1.6693373 -0.20368561 0.34422165 0.25542113 -0.41683108 0.05114741 0.3093723 -0.05804013 -0.63696754 -0.45537376 0.29398832 0.067382 -0.31841904 -0.31321183 -0.6200904 1.0735102 -0.7112794 -0.035813063 0.46547797 -0.52883536 0.28744912 0.76379526 0.39975137 -0.012008316 -0.36928096 0.03512834 -0.24355409 0.2891071 -0.08865551 -0.12017874 -0.7869855 0.19833432 0.8537038 0.56557 -0.03972016 -0.2690359 -0.46352515 -0.11643462 0.14885516 1.1411244 0.47328886 -0.021510528 -0.66795444 -0.54716665 0.5499309 0.023161154 -0.18463959 0.34694985 -0.2548258 0.28559774 0.6638081 -0.38894942
1822 0.88091165 -0.092731275 -0.6464015 -0.4025194 -0.32478866 -0.023472663 -0.19341615 -0.33388317 -0.3572433 0.028040938 -0.100565456 -0.5303891 0.008994695 -1.2146845 1.0602677 -0.17163953 0.2031014 0.37079588 -0.6877497 -1.0822254 -0.69337016 -0.0120850345 -0.26839817 0.09087777 0.5580522 0.27103874 0.54265606 0.16349393 -0.24143158 -0.72303617 0.19637223 -1.0914228 0.19714868 -0.005493971 -0.76203394 0.46869794 -0.9192979 0.006968817 0.102090076 0.654847 -0.42154464 0.46659356 -0.6445737 0.82981414 0.69326127 -0.102215685 0.18934116 -0.3039574 0.4193315 0.30038348 0.13170452 0.9142735 -0.028616855 0.4439992 1.0138698 -0.031895805 0.4246984 0.8531002 -0.27004048 -0.21635105 0.4260737 -0.39971992 0.34938228 0.31140217
2899 -0.3492122 0.20455396 0.18687133 0.2039265 -1.2885576 0.53058994 -0.59913135 0.10093995 0.7909723 0.22210836 0.03484595 0.6306173 1.0974814 -0.440787 1.486798 0.6800742 0.68448275 -0.2739269 -0.9938196 0.6351558 -0.1218633 -0.56270087 0.68808734 -0.31231248 0.72786736 -0.54401135 0.32238683 0.29274932 -0.07481935 -0.93967646 0.13206224 -0.5153054 0.9409532 0.7527804 0.99832404 -0.26752275 0.7821224 -0.12386664 -0.4778088 0.2131036 -0.17617187 -0.1147788 -0.7872112 -0.59634626 0.83253354 0.44038475 -0.50442374 0.5123573 0.8955199 0.24898417 0.14855574 0.14148982 0.36275887 0.28214926 0.5242749 -0.059011783 0.28225368 -0.107702106 -0.13115327 0.2369921 0.3077582 -0.8721751 0.08010446 0.23135813
1429 0.8874833 0.6123594 -0.83045745 0.065613076 0.17679691 -0.9143702 -0.44409448 0.45878732 0.21220848 -0.2694074 0.112835504 0.050266217 0.53889114 -0.107229576 0.068310864 0.44988376 0.2992133 -0.23944321 -0.35321411 -0.30367514 0.09092407 -0.055965994 0.17886119 0.1960696 0.09014652 0.44887257 -0.10610562 -0.077535 0.04167972 -0.2826799 -0.06746539 -0.9333903 0.69737893 -0.22640015 0.46053275 -0.050374202 -0.48678914 0.6487615 -0.4722612 0.16288602 0.09970514 0.06789374 0.57307285 0.2645661 0.19588146 0.11789563 -0.4355944 0.2694797 -0.2501579 -0.42543682 0.29606152 0.44857138 0.6312433 -0.327998 0.41037574 -0.27593878 -0.55210584 0.2820096 -0.3494603 -0.32713115 0.08248114 0.3022963 0.77819014 -0.100402504
2925 -0.08664958 0.08084215 -0.2560016 0.13427778 0.09078534 -0.23264799 0.14199911 -0.17508835 -0.007577961 -0.1249623 0.26931784 0.28447506 0.73934364 -0.3124863 -0.2382947 -0.49295494 0.4720048 0.99858177 -0.02564647 0.8289894 0.05731773 0.17332016 -0.5037146 -0.35741645 -0.24334489 0.2884608 -0.32770655 0.03529964 -0.42966512 0.38326278 0.15929946 -0.21774013 0.7794541 0.04938741 0.43115065 0.12520202 -0.06147358 0.24755096 -0.4445088 0.26008737 -0.18211997 0.5070013 0.1763887 0.061435997 -0.10811761 0.90167314 -0.6072073 -0.33142272 0.14341548 0.29668015 -0.09200005 0.711581 0.938697 0.40369603 -0.05345352 0.022982955 -0.64199585 0.47180575 -0.35548082 0.47064736 0.08663933 0.02987733 0.6287001 0.027431201
637 -0.141982 0.4292578 0.5025778 0.18593411 -0.59067845 0.30458653 -0.21958534 0.944548 -0.6997522 -0.75925875 -0.02014692 -0.112174235 0.6960498 -0.061122786 1.1441449 0.915265 0.2358866 -0.18644758 -0.41356182 0.43286183 0.7567702 0.001606502 -0.18102054 -0.5605902 0.03131368 0.14891136 0.53386664 0.12055456 -0.7288557 -0.1830772 0.18642075 0.10416678 -0.2817706 0.351082 0.5195018 -0.09968781 0.012603532 0.24679506 -0.16667753 0.9517675 0.46224582 0.20452097 -0.410091 -0.3897167 0.0035494294 0.8442221 -0.5031057 0.4110161 0.73911244 -0.25939795 -0.56649035 0.49780554 -0.34202257 0.2829203 -0.12657277 0.6517437 0.4329236 0.23932998 0.22597636 0.6532778 0.46278468 0.14859217 -0.4765423 0.033713628
2339 0.6718974 0.47530088 -0.546902 -0.1413932 -0.5037742 0.26584303 0.22979106 -0.57773906 1.5144066 0.23333608 -0.008889512 -0.18705286 0.6601061 -0.067591265 0.8225859 0.44239393 0.19719663 0.6052399 -0.982153 -0.011991327 0.1723635 -1.1500161 0.21228129 0.29312685 0.6044716 1.022414 0.27889726 0.21669033 -0.90151966 -0.2510251 0.41740224 1.120148 -0.2980058 -0.43530023 0.068211466 0.10002394 -0.37458098 0.60654 -0.14857477 0.5324254 0.023896547 0.16871381 0.12844689 0.18125984 -0.1321007 0.72528607 0.06685819 -0.13073303 0.7022208 0.15988636 -0.7955185 0.34720084 -0.3513496 -1.5098248 -0.5006383 -0.21132389 0.039548315 -0.02565789 -0.98894024 1.2230616 -0.69888455 -0.4856088 0.57178605 0.10682614
2458 0.4841936 -0.09989775 -0.99700516 -1.2358135 -0.5360229 0.037458703 -0.76049703 -0.5109292 0.69426143 -1.4092588 0.012028158 0.0021560467 1.2629586 -0.27264705 0.4321066 0.4080775 -0.039412916 -1.3522205 0.34783348 0.0505772 0.3300779 -0.3037709 0.1746519 1.0860373 0.4348862 0.786158 0.52364004 1.4869399 -0.33240613 -0.21164645 -0.82188106 0.7505735 1.2565048 0.69479525 0.6025303 0.6723343 -1.0157113 0.06673729 -0.42198503 -0.61372125 0.11951901 -1.6327257 -0.22066218 0.65363127 -0.26917127 1.0725541 0.17752673 -0.60202533 -0.036652867 0.6256754 -0.72253853 0.8593243 0.17148927 0.2763115 0.9912234 0.5602783 -0.5841073 -0.3920878 -0.19668183 -0.41121057 0.09240141 0.08486103 1.7384487 0.5997543
2703 1.1908284 -0.25294116 -0.4345081 -0.016210591 -0.5593321 0.05714175 0.71843296 0.6760298 0.7450727 -0.03428263 0.96055925 0.6493403 -0.3849292 -0.5189694 0.4499657 0.98978925 -0.38183263 -0.9415443 -0.36246884 0.3098762 -0.016373616 -0.9843957 -0.4745821 -0.049072612 0.67905146 0.39882264 -0.8422079 0.7762514 -0.6209719 -0.34617358 -0.31298333 0.2449468 0.60933536 -0.60644287 0.6725747 0.43444443 0.3426597 0.15278013 -0.07156447 -0.9575994 0.27670318 0.35244036 0.03991205 -0.054372486 0.6318528 1.2508448 0.3227586 -1.0488757 0.30398098 -0.16773932 0.45818293 0.96419346 -0.05410127 0.52451754 0.61668396 0.17977837 0.20369141 -0.9488578 0.18905325 0.61540085 0.8620027 0.71912473 -0.72195905 0.74300843
1875 0.24381918 0.6895203 -0.71329737 -0.16364428 0.42034724 -0.7556222 0.063195005 0.710748 -0.022465609 -0.13040802 -0.22600542 0.11162805 0.5885235 0.05329007 0.40041807 0.5258303 0.055056926 -0.4752069 -0.2575703 -0.14506932 -0.12882173 -0.23781541 0.012308864 -0.4503543 -0.21936588 0.16819142 -0.18193199 0.6149795 -0.283098 -0.07421898 -0.113877505 -0.10339837 1.103076 -0.50713104 0.5707152 0.8370699 -0.6277345 0.37749442 -0.31765866 0.09771372 0.16572337 -0.15695427 0.10651068 0.10151957 0.19158795 -0.010194662 -1.1583972 0.509704 -0.14459836 -0.5728345 -0.02417214 0.12872513 -0.10247226 -0.13028511 -0.12607743 -0.443349 -0.15492898 -0.24157666 -0.23658797 -0.3245477 0.15970835 0.25164637 0.55946 0.38489482
2829 -0.45385575 0.29326525 -0.31724608 0.35232687 -0.6366517 -0.23803006 0.38859442 0.16766343 -0.19792372 -0.4684426 0.04393865 0.1731498 0.34407297 -0.06775885 -0.29044437 -0.5677969 0.48544163 0.8049201 0.017746434 0.68697524 -0.004435244 -0.09725184 -0.35481724 -0.16617437 0.32982573 0.14211442 -0.17337096 -0.04819595 -0.22259651 -0.12082779 0.22154783 -0.045031227 1.4057156 0.29098088 0.21299183 0.0076575587 0.04116874 0.6031976 -0.30783737 0.3746254 -0.29390216 0.16077879 0.10317604 0.2904559 0.26693627 0.8398787 -0.41353258 -0.017268868 -0.11439724 -0.30062112 -0.10113077 0.3082865 0.7428639 0.14139934 -0.03432211 -0.30020136 -0.70670354 0.39400533 -0.44006827 0.81711185 0.06559177 0.04693442 0.31135476 0.33508575
1585 0.045865197 -0.6285315 0.14989547 -0.00029737208 -1.0213568 -0.8871561 0.006882816 0.05172187 0.21201828 0.06971147 -0.15498407 0.26274222 0.38373488 -0.78885335 -0.1390887 0.21975902 -1.0869273 -0.24507424 -0.67630935 -0.28194165 0.24750124 -0.3692236 0.022875251 0.7786101 0.5219051 -0.023311393 0.068399474 0.67818505 -1.4043587 -0.13604313 -0.74081 0.33778167 0.4101799 0.80959165 0.5958411 0.16191858 1.0279005 0.82792944 0.38831726 2.293794 -0.29925627 0.0875561 0.34591773 0.26129487 0.36866173 0.6782849 -0.6721223 -0.37098715 0.39067867 0.3550267 -0.4711156 1.1069233 1.1373837 0.6944928 0.08495383 -0.3560392 0.3967657 -0.8085673 -0.010398758 0.34449276 -0.94665736 -0.20008187 -0.45126092 0.39641258
450 0.029977495 -0.12668452 -0.044194885 0.22885366 0.12526254 -0.48035538 0.5356833 0.22140802 0.43361148 -0.89504015 0.3512611 -0.848423 0.53696716 0.369298 0.39766693 0.27534637 0.123174004 -0.21855615 -0.1947835 -0.03500917 -0.11995855 0.06924104 -0.4574773 -0.5164118 -0.08955641 0.15097068 -0.012732959 0.27988714 -0.47303453 -0.37091893 -0.0072744465 -0.5448841 0.46121132 -0.59412897 0.2782401 -0.54427326 -0.432159 0.59656805 0.7245242 0.49997202 -0.7120022 -0.17330696 0.15778233 -0.34778282 -0.16863972 0.4948537 -0.14602955 0.7461566 0.0077856984 0.15385488 -0.43925396 0.44965655 -0.12695111 0.15448338 0.74782956 -1.2640793 -0.15154217 -0.2239566 -0.27100918 0.6086019 1.047012 0.18638818 0.42037946 0.15588097
453 -0.031570293 0.5913697 -0.12184428 -0.42793608 -0.06119583 0.13279107 0.21207617 0.14577205 0.026810143 -0.1915425 -0.07657951 0.22751084 0.5490297 0.19833435 -0.15648232 -0.28498602 -0.14008692 0.040183052 -0.05131711 0.16886961 -0.42711958 -0.4014298 0.28824663 -0.02450136 -0.27535316 0.75675064 -0.835587 0.47440347 -0.14002165 -0.110406905 0.01697059 -0.24640514 0.67579645 -0.18040423 0.18474723 -0.24968526 -0.15463142 0.30197045 -0.5083941 0.13924475 -0.25819114 0.37195653 -0.23547822 0.8016637 -0.13799943 0.066208825 -0.5970378 -0.45333236 -0.17515388 -0.09000303 -0.16458715 0.022016203 0.7284276 0.5185853 0.29011506 -0.47619945 -0.79630655 0.3401422 -0.7504029 1.0765669 0.27988482 0.024528703 0.026048325 0.47359043
2622 0.36293098 0.43866038 -0.18133353 -0.375622 -0.21248074 0.024866728 0.25051317 0.41845098 -0.36732757 -0.06179379 0.014588491 0.5217967 1.0125917 0.12084164 -0.24372107 0.19423677 0.32986793 0.122522734 -0.2860433 0.0634261 0.6017344 -0.39896894 -0.10306904 -0.4309862 -0.2892556 0.81480557 -0.089485094 0.08944162 -0.36527014 -0.34789813 -0.00531749 -0.31182003 0.24956262 -0.10016567 -0.09734871 -0.7054927 0.049017876 0.22021699 0.23746556 0.49420828 -0.35954958 -0.24776274 0.0057786005 0.01148602 0.02343733 -0.25307733 -0.5012171 0.124990776 -0.4592556 -0.44158438 -0.10276536 0.59232724 1.2583221 0.4448219 0.5230536 0.07015309 -1.2341429 -0.22686154 -0.49204627 0.31408212 -0.009282628 -0.08861974 0.67753345 -0.25349247
2316 -0.07094049 0.13792297 0.3328681 0.5786487 -0.20625283 0.56233776 -0.20869823 -0.11435662 -0.14289309 -0.17091586 0.19537573 -0.3003881 0.88503057 -0.5348192 0.14803138 1.0630288 0.066963315 -0.08996204 -0.25354645 0.30900565 0.04407179 -0.074472725 0.9419713 -0.2840416 0.2505745 -0.010454413 -0.065540366 -0.24811605 -1.2327336 -0.8102869 -0.9525755 -0.019971164 -0.28174984 0.2876251 0.19613625 0.48129755 -0.16929002 0.17280476 -0.652645 1.1895161 0.41652995 0.49739292 0.15231779 0.31487435 0.666089 0.08839704 -0.24945818 0.05544326 0.44440395 0.1670544 -0.2826144 -0.08045829 -0.28488138 0.3749856 0.70154184 0.8807558 0.3026297 0.5476774 -0.49687344 0.45463076 0.5291394 0.33026773 0.27825677 0.48577318
887 -0.15919057 0.6284857 -0.31136388 -0.19258516 0.28301886 -0.19388027 0.16994531 -0.031456113 0.23455998 -0.35866126 0.070827365 0.2994214 0.43927753 0.0059978254 -0.03702206 -0.253002 -0.028763136 0.1693075 -0.14896178 0.5445753 -0.29021573 -0.015373045 -0.11787954 -0.077597514 -0.5376414 0.6163773 -0.2374617 0.21502529 -0.1532472 -0.5129327 -0.110361 -0.07396755 0.9364533 0.024469553 0.2414163 0.04956055 -0.15276109 0.64739287 -0.34081063 0.58797896 -0.23143066 0.039659075 -0.27411467 0.35402766 0.11689784 -0.23825958 -0.22290389 -0.35737264 -0.07489611 -0.3057112 0.29849172 0.017533306 0.89980143 0.6119881 0.4325732 -0.06031675 -0.89175963 0.2561673 -0.26975402 0.9857054 0.4255256 -0.077833794 0.17321898 0.53778684
254 0.66029114 -0.41399893 0.046270043 0.48143625 -0.3189555 -0.16567837 0.07011341 -0.21866511 -0.2196435 -0.10447558 -0.334811 -0.39203185 0.011019207 -0.92678165 0.674851 0.46034363 -0.16204067 0.7562565 -0.5680238 -0.37429753 -0.23808174 -0.7474423 -0.5752652 -0.16917165 0.6853527 0.81652987 0.5430458 0.08816983 -0.016413223 -0.21115385 0.13658156 -0.47665173 0.3794321 0.29013944 -0.21494032 0.540388 -0.63832384 -0.22308178 0.36044016 0.36790603 -0.82315063 -0.023935612 -0.15178561 0.76680416 0.8927764 0.032657586 -0.16288096 -0.6483715 -0.21657726 -0.29524913 0.37222716 0.56069565 -0.23136121 0.8404251 1.2223141 -0.1703298 0.5613626 0.82470155 -0.60721576 -0.14951158 -0.018142335 -0.8270219 0.19919296 0.425328
670 0.110325664 -0.03748444 0.3072045 -0.5899201 -0.444211 0.07119361 -0.29526916 -0.15347898 0.42819697 -0.28769735 0.14665638 0.30306014 0.3433924 -0.53884834 -0.7095842 0.6436823 -0.35155532 -0.3075977 -0.9175369 0.21095788 -0.23153475 -0.9115711 0.19440906 -0.39524794 0.83966345 0.07210612 -0.4630672 -0.18265457 -1.3534211 -0.5874576 -1.0174388 0.016581543 0.15926887 1.3759011 -0.042754285 0.5758807 0.11648815 0.65198976 -0.09515188 1.2096549 0.32369787 -0.1586026 0.29342744 -0.25947022 -0.20137037 0.01804285 0.21898602 -0.21956089 -0.06295056 -0.45818835 -0.13394934 0.28839862 -0.56828606 0.8474619 0.93095946 -0.40995175 0.050385162 0.1520239 -0.21639253 0.03637616 -0.44111776 0.032299787 -0.5494302 0.23909037
1992 0.77847105 0.502562 0.31139877 0.3680742 -0.45886973 0.92176795 0.043678924 0.16049603 -0.18078105 -0.46376678 -0.107643954 -1.0556386 0.22161303 -0.91732246 0.1092283 0.1939795 -1.289107 -0.2427258 -0.273603 -0.23557258 -0.4157928 -0.10644699 -0.8273828 -0.06379581 0.9378972 0.10381752 -0.8220536 -0.37111926 -0.44490948 0.1658721 -0.46931094 -0.53591245 0.47528085 0.03207987 0.10435656 0.13816345 -0.98279446 -0.26785573 0.031695228 0.55204904 -0.6467952 0.38833284 -0.18791063 -0.13990007 -0.19918996 0.75952154 -0.5328357 -0.057710856 0.03790562 0.13062903 -0.09821391 0.5472945 -0.008902266 0.19047417 0.50492823 0.5920623 0.8471792 0.80161566 -0.699181 -0.20809345 -0.17346057 -0.9956584 0.054643854 1.0490265
28 0.312309 0.084052406 -0.053895548 0.45835793 -0.103046425 0.7881193 -0.46486276 -0.11958212 0.4037747 -0.7005393 0.07560487 -0.33452904 0.9205099 -0.72343206 -0.06652858 0.24273047 -0.018186985 -0.22180477 -0.55427074 0.289471 0.92457736 0.2217568 0.79548186 -0.12190286 0.29643628 0.5916121 0.5253668 -0.45677418 -0.42111665 -0.97916687 -0.010693059 -0.16043167 0.2984104 -0.13485184 0.8142659 0.3216595 -0.13172829 0.42922622 0.14248906 1.2669618 -0.030806288 0.24444999 -0.26790902 0.36201385 0.0035064954 -0.012979966 0.023656491 0.14330186 0.35546747 -0.495992 -0.17596012 -0.13332255 -0.60848 -0.14138141 0.30953887 0.991528 0.50497353 -0.32482806 -0.9652557 0.98197055 0.24025913 0.07510422 0.5007031 0.22211167
1605 0.16442919 0.08939538 -0.30305326 -0.31890276 0.5061478 -0.092225306 -0.18675949 -0.2033878 -0.6098387 -0.08529321 -0.34906727 -0.14296068 0.93757445 -0.2591994 -0.5203925 -0.5686961 0.33539355 0.71306086 -0.14859635 0.5945041 0.2686107 -0.033707816 -0.3895024 -0.428766 -0.24689327 0.22333606 -0.31790674 0.20045629 -0.7092109 -0.15202066 -0.16420697 -0.19681339 0.82983726 0.09829423 -0.22643942 0.39032736 0.025134003 0.49893084 -0.2768518 -0.07925419 -0.28794786 0.3952947 0.16476327 -0.28793982 0.2322258 1.0967904 -0.021134181 -0.42833337 0.32594448 -0.048976585 0.15782198 0.93706435 0.73946065 0.42813337 -0.1415627 -0.06994723 -0.6412883 0.71305144 -0.5707261 0.39540365 0.3932118 0.2718694 0.5372262 0.09886222
2911 -0.21143605 -0.21701147 0.3191141 -0.60586345 -0.8314447 0.21527654 -0.04584165 -0.24326432 -0.22685614 -1.0276687 -0.52451235 0.40618905 0.82718927 0.08951991 0.49160182 0.5651472 -0.29606807 -0.273325 -0.5127484 0.2579171 -0.32715404 -0.26193234 -0.2635798 0.10993428 -0.13353373 -0.76122504 -0.785918 0.0077671222 -1.0584714 -0.870047 -0.116994336 -0.79651856 -0.41547874 0.6153865 -0.08216161 0.7257944 -0.58591986 0.1253893 -0.3556239 0.54031414 0.37623784 -0.32471156 1.0318593 -0.05404608 -0.10557138 0.44003972 -0.25563568 -0.15081011 -0.16907871 0.0679374 -0.5289235 0.3979556 -0.55129284 0.104632124 0.32138765 0.43350476 0.12861092 0.82387114 -0.31538564 0.8036428 0.2983842 0.0074009355 -0.10235076 0.7878442
1567 0.0929665 0.03947436 -0.51082265 -0.27279967 0.14302383 -0.10291803 -0.16391367 -0.5074706 -0.26435843 0.17671363 -0.59699965 -0.3896137 0.9826832 -0.19076733 -0.46694273 -0.39624804 0.18818608 0.3880042 -0.1438884 0.5497242 -0.008181241 0.17383885 -0.6506801 -0.3916257 0.0022658114 0.31795228 -0.08894828 0.22291104 -0.1762763 -0.07584825 0.09336797 -0.15344973 0.7012325 0.21299477 -0.08452653 0.6507472 0.05166645 0.4924008 -0.34808266 -0.07078628 -0.16121922 0.44661012 0.31406435 -0.34533098 0.45528778 1.2075369 -0.48754105 -0.12640473 0.0028268208 -0.2690025 0.4190538 0.76129866 0.74081564 0.25815734 0.026470488 -0.07940976 -0.51885223 0.31809455 -0.1467669 0.586346 0.45043132 0.25295538 0.44122294 -0.1173606
540 -0.26528385 -0.38889953 0.65651506 -0.39975113 -0.6452415 -0.072854474 0.1786456 -0.13308984 -0.0583414 -0.5805505 -0.66914165 -0.055120904 1.1170056 -0.24281196 1.0274086 0.7828137 -0.19745693 -0.26720333 -0.43781254 0.2676264 -0.42891866 -0.069628604 -0.38560754 -0.20885259 -0.074274085 -0.8548644 -1.0652947 -0.41099608 -1.2792404 -0.7561793 -0.29772952 -0.8400502 -0.1213509 0.31025764 0.36288399 0.8507398 -0.9198782 -0.21677269 -0.3113522 0.5903238 0.4672897 -0.43285334 1.0434308 0.16912347 -0.01691351 0.084052354 -0.57623047 -0.428195 -0.17708714 -0.07722381 -0.403967 0.20642917 -0.35096982 0.19612198 0.39443853 0.5498715 -0.37446997 0.24273083 -0.8488021 0.9905881 -0.057581607 0.07969598 -0.15022488 0.83211493
1034 -0.18599822 0.41385657 -0.19152449 0.0064573176 0.033156395 0.029168481 0.053864848 -0.015774501 -0.015687197 -0.23127751 0.31268322 0.41275266 0.3438228 0.20352982 0.07895265 -0.1444824 -0.07512279 0.37040812 -0.053902417 0.5130037 -0.57633936 -0.49635258 0.06964732 -0.13571095 -0.6441206 0.6959582 -0.28832495 0.19941555 0.091787964 -0.21276361 -0.028479468 -0.22974211 0.77486503 -0.1478862 0.20780937 0.12650962 -0.03142037 0.52280563 -0.54074436 0.19116402 -0.51439023 0.26496398 0.002790533 0.5990354 -0.02678231 0.11371512 -0.6483008 -0.2912644 -0.059862055 -0.06588255 -0.057050556 0.3636061 0.88147247 0.74969846 0.33801937 -0.24581198 -0.7924539 0.35064077 -0.32880247 1.0130733 0.35565165 0.26396707 0.3267152 0.4118126
2196 0.06397414 0.09220681 0.049270567 0.1866979 0.42200127 0.026513573 0.19564068 0.41191748 0.26199922 -0.65957725 0.21518578 -0.24647161 0.9352124 0.4035011 -0.012504135 -0.19076835 0.42930165 -0.2730967 0.09808882 -0.70042604 0.31495842 0.25835034 -0.7234183 -0.52734065 0.13406102 0.29151154 -0.6589013 0.33672917 -0.3112719 -0.45532435 -0.23280284 -0.54006904 0.4933035 -0.5330833 0.31622186 0.040068135 -0.21150078 0.42880398 0.5621831 0.4716019 -0.41710597 -0.023114733 0.35374323 -0.057504293 0.11723668 0.48725381 -0.36647364 -0.15635504 -0.70354104 -0.15365623 -0.7119548 0.6499612 0.4765172 0.0041065495 0.47510955 -0.5713108 -0.1368221 -0.12324476 -0.5478542 0.504892 0.55980045 0.07119818 0.13667552 0.032945406
12 0.3044555 0.06340393 0.20725517 0.117541894 -0.22814795 -0.39190662 0.008185124 0.12005625 0.1388595 -0.86139196 -0.51142734 0.08066206 0.59684855 -0.28988633 0.21626817 0.2320833 0.3302997 -0.31808704 -0.26173162 0.010991071 0.08631683 -0.20107059 0.16559733 -0.71252096 -0.90241975 0.8491796 -0.46680853 -0.12119007 0.057564676 -0.6489765 0.016888114 -0.26967064 0.35987526 0.29723224 0.29963505 0.65273696 -0.36977473 0.88376886 -0.58229536 -0.49628732 -0.28917888 0.5909609 -0.16756171 0.8099742 1.1052258 0.56712776 -1.445003 0.2130355 0.21006732 -0.39215294 -0.66063815 0.70354426 0.09537331 -0.3853627 -0.025655463 -0.8829881 0.046340145 -0.6275298 -0.6946061 -0.93404835 0.31845134 -0.28649703 0.27485695 0.54699814
1112 -0.17715846 0.14483191 -0.12639442 -0.02770731 -0.04306727 -0.34324884 0.22823045 0.20305714 0.061505735 -0.16127092 0.117649116 0.33512577 0.61532056 -0.05976289 0.24828658 0.022698823 -0.06365477 0.13532491 -0.28491807 0.6332317 -0.026337128 0.104425564 -0.21489802 -0.033896353 -0.4189538 0.36748838 0.116052955 0.6742067 0.32002288 0.049068354 -0.3468028 -0.13191792 0.43739834 0.26875263 0.02606193 0.008915257 -0.116821654 1.0842199 -0.089256115 0.28681862 -0.63649213 0.0007033146 -0.3399467 -0.025784066 -0.39976943 0.3706248 -0.7315864 -0.20908879 -0.3049452 0.0038579917 0.08213793 0.010370873 0.16347094 0.45022377 0.09560705 -0.1821529 -1.5579208 0.5585051 0.18047054 0.90842754 0.56973475 -0.3146075 0.73024476 0.32279104
2861 0.26918924 1.1476251 -0.24330522 0.61158246 -0.15441848 -0.030077975 0.33128217 0.56919485 0.46539935 0.15282395 -0.28209564 -0.49184173 1.3155721 -0.19287401 0.49565122 0.071408294 0.18151486 0.12989631 0.31021348 0.18925713 -0.12794308 -0.19577204 0.18588255 0.18658252 -0.40069002 -0.3656824 -0.4267892 0.68982667 -0.60474867 0.547114 -0.009314139 -0.062259514 0.9246773 -0.06357857 0.6516427 0.3656365 -0.8232374 0.11635832 0.14888452 -0.042746652 -0.37916067 -0.2793236 -0.760192 0.15995738 -0.02048948 0.05212147 -0.2391677 -0.50928175 -0.41305974 -0.62503564 -0.06962087 0.95592356 -0.21801719 0.51582974 -0.54521716 -0.55130434 0.493033 -0.730127 0.2356377 0.5444567 0.045957055 0.37027425 0.5658292 -0.201756
1410 0.5931652 1.0366347 0.23308368 0.27314955 -0.73099524 0.5377227 0.5438353 0.17841145 0.16249652 -0.581384 -0.10616401 -0.022622213 1.0097066 -0.06381962 -0.25479826 -0.103344984 -0.6790923 -0.61570776 -0.0038717664 0.7330307 1.2658465 -0.23440227 0.09303444 0.30656454 0.06442916 -0.027336894 -0.03447006 0.6335315 0.1439598 -0.08651466 -0.028968506 0.11560213 -0.27646723 0.17011411 -0.46028066 -0.023196999 -0.78850174 0.24957249 -0.19573312 0.8345722 -0.09340721 -0.051556125 0.53984624 0.21268088 0.28676906 0.805093 -0.050124627 0.056674372 0.27077585 -0.7697157 0.5992667 0.4793888 -0.4785207 1.2027761 0.26717582 0.85473585 0.739913 0.43011934 -0.22129042 0.073487446 0.08909723 0.59524626 -0.7121782 0.6607378
98 1.287521 -0.45139644 0.45907322 0.56697637 0.1973541 0.53589815 0.4395414 0.13358776 0.47968137 0.3236292 -0.0111919325 0.4494977 1.4694107 -0.25005388 0.3328314 0.4333225 0.08358151 -0.11579652 -0.029746432 -0.29959553 0.07186293 -0.77771586 -0.08406872 0.0466271 -0.21199034 -0.5591203 -0.37330845 0.96904767 -0.84040153 -0.072322644 -0.390344 -0.6583604 0.39223996 0.6215929 0.6146532 -0.11655477 -0.1740793 0.25802988 -0.6392124 1.0494084 -0.42431056 -0.47125158 -1.1071188 -0.25671712 1.254381 0.50232595 -0.27710453 -0.42136085 -0.51133585 0.044109423 0.5374064 1.3435743 0.3407132 0.0330509 -0.5912671 0.04852206 0.6037846 -0.21232632 -0.449491 0.21547347 -0.30218005 0.5581854 -0.25771657 -1.1597819
2189 -0.11426901 0.4471808 -0.088913925 -0.29203475 -0.5784466 -0.044115476 -0.078185745 0.12255723 -0.12013791 -0.86689997 -0.15755513 0.19765548 0.25813124 -0.2102262 1.147497 0.4370302 0.057691332 0.35444883 -0.14548925 -0.30332065 0.56417435 -0.43762788 0.3612891 -0.6720499 0.07516806 -0.25674582 -0.0473281 -0.18857108 -0.80628175 -0.27167544 0.13999237 0.21028386 -0.39007312 -0.044090435 0.43738872 -0.060533985 -0.2932424 0.15594564 -0.19867888 0.5945888 0.8597031 -0.3150589 0.06716657 0.39349246 0.018545756 0.9553418 -0.44325972 0.0013878245 0.68576014 -0.40906045 -0.6698313 0.5767451 -0.08995249 0.24419114 -0.072833516 0.39731175 0.82595885 0.58537775 0.13614525 0.6814168 0.5391876 0.056495752 -0.71688986 -0.056229427
3274 0.43547165 0.54479265 0.5772122 -0.6319497 -0.68626004 0.04366813 0.03305208 0.6574303 -0.16149832 -0.7478178 0.60624564 -0.35890388 0.53821385 -0.51777744 1.0719621 0.40878713 0.20679754 0.13840373 -1.2506853 0.839446 0.2647748 0.21955974 0.07434399 0.36113614 0.8167149 0.7796859 -0.45183942 0.55671364 -0.75270486 -0.95562255 -0.047734916 -1.0322009 -0.23814905 0.17172824 -0.0010966383 0.1895096 -0.42454222 -0.065816075 -0.32005337 -0.20780855 -0.0064208237 -0.027012534 -0.035075817 0.308744 -0.05416885 0.7717409 0.21425124 0.3257707 -0.76743627 -0.6482732 -0.60934156 -0.46528107 0.19983126 0.7500262 -0.17939173 0.170291 0.6850242 0.35253152 0.58127576 -0.1290811 -0.1872035 0.79135585 -0.4098307 -0.59907764
1981 0.7515339 0.4254815 -0.24907115 -0.41795126 0.07230834 0.12659489 0.40705332 -0.21198866 1.0932151 -0.16141179 -0.011670881 0.26368678 0.8691478 0.378011 0.7612907 0.78363675 0.76007646 0.9651836 -1.2627758 0.17540139 0.47634423 -1.5350151 0.32244706 0.4549225 0.090359636 0.3843267 0.059238803 0.60709846 -0.32075986 -0.29010352 -0.7415765 1.4590774 -0.16576092 -0.7513041 -0.20513819 0.662962 -0.39240742 -0.20487972 0.21400534 0.8390079 -0.32835972 0.30673522 -0.8713536 0.8256348 0.5216345 0.5820063 0.03971321 -0.43750808 0.3946545 0.15123713 -0.6429022 1.2464242 -0.3761465 -0.954063 -0.4323286 0.16844256 0.2604399 -0.44747835 -1.1355966 1.0786585 -1.1720687 -1.264323 0.068466805 0.65230596
616 -0.008094068 0.3389415 -0.41181925 -0.17539956 0.4510108 0.05136976 -0.13511898 -0.18415713 -0.8024032 0.047628284 -0.3596103 -0.3670838 0.8498218 -0.47737393 -0.46753553 -0.3752682 0.3756951 0.46077406 -0.10814232 0.54379815 0.27748954 -0.05591766 -0.21444826 -0.36335802 -0.41747162 0.20784289 -0.28385133 0.23743646 -0.5188441 -0.13429143 0.015862877 -0.12392011 0.6681926 -0.03300374 -0.124814756 0.3907588 -0.18119772 0.36779642 -0.25210258 -0.0031229293 -0.22108243 0.21207161 -0.0015420107 -0.15209055 0.25615227 0.8279979 -0.04698025 -0.36096597 0.14463757 -0.06087139 0.3074792 0.80778724 0.71229 0.5573229 -0.28208718 -0.15438576 -0.38195685 0.3896908 -0.6987342 0.680157 0.30849656 -0.008182741 0.31505606 0.03739493
47 1.7091048 -1.3168699 -1.1247841 1.0549806 0.48712283 -0.35842463 -0.2293987 1.2534462 0.27833596 -0.4625879 -0.5932851 0.08164948 0.6895621 -1.1863906 1.124024 -1.2465311 -0.77795124 0.6601823 -0.7634139 0.75525844 0.14372095 -1.6064298 -0.22689295 -0.4935584 0.16172278 -0.3103422 -1.6906016 -1.0231252 -0.05966515 -1.1117508 0.06843336 -0.08933358 0.15500246 0.80334246 -0.60994565 0.19664824 -0.09730845 0.06538744 -0.37595412 0.4953995 -0.5700114 -0.78866416 -0.27845913 0.0035214035 0.72953284 0.9389057 -1.625586 -1.3959858 0.51464224 -0.30324724 -0.34552136 -0.75503635 0.27727377 0.02278984 1.0228119 -0.029354952 -0.6826687 0.41280138 0.22193657 0.72462773 0.7347597 1.0330528 -0.19973707 -0.4176642
2447 0.07694287 0.6811748 -0.09841119 0.27275255 -1.2518039 -0.42097372 0.07012454 0.23722294 0.090466924 -0.7183162 -0.40268236 0.32464877 0.27936748 -0.3736562 0.02847584 0.50948286 -0.45765314 0.71754754 -0.9530536 0.7400468 -0.32343647 -0.2982757 -0.30740997 -0.24127975 -0.10201398 -0.08201515 -1.1198947 -0.00431159 -0.5907957 -0.9611481 -0.65190953 -0.024211245 -0.1415989 0.47882453 0.16152145 0.23259601 0.13763833 -0.57289904 0.29803246 0.42289892 1.0989051 -0.4115301 -0.10584532 -0.35959 0.20911081 0.16937019 -0.34043497 -0.19318868 0.446534 -0.36988425 0.07400102 0.41326788 -0.9453449 0.2789686 0.98598534 -0.037958283 0.20044684 0.49804148 -0.24891937 0.35811362 -0.5505538 1.141038 0.18960826 0.17296101
567 -0.7495855 0.24303897 -0.0666177 0.7191114 0.2529049 0.17100818 -0.03116586 1.3769087 0.66338897 0.55196726 -1.0389442 0.73619914 0.47609386 -0.42105362 0.90540385 -0.8466523 0.77138174 -0.62266135 -1.0055892 0.9604926 -0.9120289 0.035258744 -0.5039221 0.29213172 0.35882276 0.20383742 0.4900058 0.8785641 -0.17553419 0.024794564 -0.21427533 -0.2254918 -0.47621578 0.61107725 0.43394905 0.117625624 -0.6843582 -0.22713503 0.5056867 -0.2791329 -0.4240705 0.3372023 0.14412402 1.0142642 -0.16388354 1.6320946 -0.9434405 -0.54407907 0.0006865228 -0.99489725 -0.25428206 0.2523391 -0.25934315 -0.21655154 1.3222463 0.16840886 -0.19027396 0.1844142 -0.61945903 0.41218793 0.29658303 0.22389935 -0.25858396 -0.11494006
1971 0.46901798 -0.4233468 0.4247532 0.3308136 0.5746069 -0.14903152 -0.7217933 0.2043497 0.7276427 -0.92197794 -0.37567744 -0.46046877 -0.9958915 -1.1189588 0.41043326 -0.37319648 -0.18521534 -0.29784003 -1.528246 0.21067867 -0.12040633 0.67830336 0.29929307 0.14914946 -0.75966364 0.20042378 0.6199441 0.36056986 -0.4461676 -1.7067828 -0.5014353 0.6588092 -0.2903081 -0.30734432 -0.29580465 -0.76812583 -0.259552 -0.1682945 0.18135056 0.43186206 -0.7004191 -0.6068063 -0.14850499 0.07136915 0.12051247 0.9447925 -0.7767106 -0.84490377 0.5749715 -0.4201571 -0.1029235 0.5361568 -0.42384404 1.1738681 0.21312283 -0.36113876 -0.042509872 0.2990543 -0.09950379 0.65411526 -0.15532549 -0.019659748 0.8558865 0.14997551
622 0.050893158 0.18457079 -0.39050353 -0.29478934 0.60017884 -0.27668932 -0.16424635 -0.22274964 -0.6326353 -0.0118662305 -0.17052986 -0.20931846 0.92106426 -0.35570234 -0.5359731 -0.5799272 0.43712306 0.6902074 -0.21574442 0.73246586 0.24319845 -0.013472969 -0.2834641 -0.4927909 -0.24429467 0.31266817 -0.421304 0.071233965 -0.78888863 -0.26317522 -0.075153254 -0.13299082 0.73157096 -0.012969352 -0.23981458 0.37271714 -0.03316882 0.3096482 -0.18570472 0.1645024 -0.32597813 0.35458016 0.27347174 -0.29267395 0.27203864 1.1299089 -0.13901964 -0.5944822 0.4228416 -0.0688966 0.34136462 0.8734598 0.570706 0.42581615 -0.19909316 -0.26835972 -0.5135183 0.5097527 -0.6712766 0.44003633 0.371956 0.14195251 0.40497023 0.05318306
2597 -0.018538043 0.35499457 -0.30760452 -0.21163012 0.60820746 -0.31850263 -0.564297 -0.14942229 -1.2001544 0.080346726 -0.20216218 -0.49550536 0.7979853 -0.16069154 -0.73112947 -0.17833513 0.724737 0.14544939 -0.2629142 0.733907 0.041686308 -0.009137914 0.0819896 -0.45656624 -0.43932232 0.19118889 -0.5086506 0.47351593 -0.61481786 -0.12097909 -0.37740836 0.008683825 0.48416284 0.24697208 -0.5302554 0.6556491 -0.3499607 0.5656999 -0.1756132 -0.0032884157 -0.075077675 0.13372993 0.047201958 -0.25636128 0.7306769 1.2215848 -0.08701347 -0.52881753 0.52471626 -0.07119641 0.25162467 0.9156784 0.4609729 0.5073501 -0.14779705 -0.20838301 -0.37450483 0.3790828 -0.6343002 0.5407682 0.20615456 -0.058802117 0.3698581 0.02566478
1933 0.935942 0.6330622 -1.3573202 1.1969858 0.30448073 -2.0912552 -0.03929849 -0.7159807 0.26466057 0.6310348 0.3806545 0.094989985 0.18983188 -0.24110931 1.526495 -0.49109063 -0.39075518 -0.33404648 -1.2445234 0.9723431 0.5045218 -1.2866485 -0.5811893 -0.6855639 -0.7100317 0.5719691 0.67770153 -0.19651021 -0.79313093 0.5878839 -0.42672947 -0.6969385 0.14435424 0.9053377 -1.0890443 -0.013442611 0.86128557 -0.7496463 -0.7016532 0.5735262 -0.021515513 0.347921 -0.77955127 0.87242305 1.4704102 0.7666671 -0.58802485 -1.143663 -0.14758891 0.23051924 -0.28102 -0.4529376 0.40798953 1.1882184 0.8951246 -0.032160364 -0.15988089 -0.9048625 -0.6096172 0.5430686 0.3770859 0.10100052 -0.14069667 0.91459596
2067 1.0309712 -0.69298756 -0.2914181 0.5085048 -0.27678812 0.16243796 -0.05666178 0.021942005 -0.52171934 0.20386451 -0.35881096 -0.14756483 -0.16981627 -0.48918903 0.52706707 0.06429443 -0.059325974 0.39821744 -0.5530676 0.032969702 -0.20233703 -0.47819555 -0.63501215 0.12842701 0.7181141 0.8036211 0.4598122 0.48639044 0.038992245 -0.28492153 0.2678654 -0.45759833 0.43442255 -0.02157309 -0.11593051 0.5553571 -0.45337918 0.04183369 0.052092522 0.68113273 -0.20049618 0.096889585 0.35884732 0.6896303 1.5018051 0.27640295 -0.45570216 -1.0553808 -0.30887663 -0.5540265 0.42096418 0.13288906 -0.5189783 1.3006955 1.4008178 -0.49933344 0.5735943 0.76854926 -0.16783625 -0.10127519 0.048340697 -0.8544406 0.3161281 0.34374583
1894 0.66483 -0.20573111 0.6987043 -0.30210856 -0.10775285 -0.5952917 -0.62507075 -0.45579988 0.64592195 -0.28298658 -0.86612564 0.91218597 0.68862206 -0.14620264 1.0582534 0.018320728 -0.30430776 -0.18444103 -0.8657137 0.2979131 0.37677124 -0.04797778 0.029654305 -0.67392236 0.18824999 -0.31561574 0.5337476 0.4851815 0.078685895 -0.8874556 0.26905805 -0.03210073 0.8088391 -0.22460206 0.2515959 -0.6547733 -0.021988012 0.72994083 -0.15446343 0.09826583 0.24368703 1.1823473 -0.36438814 -0.15267308 0.852171 -0.093508996 -0.37759933 0.37437183 -0.86001694 -0.2100422 0.13599168 0.3273809 0.19331263 -0.40246317 0.5269684 0.06237591 -0.23323645 -0.6787663 -0.7884995 0.07325061 0.2918622 0.5177951 0.5439752 0.92372054
3249 0.5964791 -0.009440503 0.21021633 1.263922 -0.13804673 -0.4769605 -0.023617497 -0.13222197 0.24875171 -0.37362903 0.036290817 -0.12890269 0.45103553 -1.0776894 0.64166605 0.30601463 -0.18636996 0.8503883 -0.048849348 -0.37948447 -0.6416063 -1.2911363 -0.7281605 -0.46750677 0.23989305 0.8574128 0.87187076 0.55433875 0.11677477 -0.6459207 -0.2421544 0.117142156 -0.09737135 -0.10763401 -0.08660485 0.915337 -0.85537916 0.09047136 0.7457133 0.41624615 -0.64930844 0.47349185 0.100253895 0.18509912 1.0580938 0.32197282 0.26850715 -0.61690557 -0.12094694 -0.24101362 -0.4596189 0.22539306 -0.23976932 1.091755 0.909443 0.11762515 0.37915298 0.3958931 -0.5438039 -0.20340884 -0.13738449 -0.9296276 -0.41689876 0.61597455
2348 1.1956027 -0.23175085 0.40553793 -0.19229867 -0.15202847 0.73138386 1.2477201 -1.3046834 0.4806097 -1.2617253 -0.59074473 1.0036378 1.1767266 0.16676065 0.5796233 0.7831916 0.49872103 -0.3066812 -1.8003836 0.46866107 0.8267922 0.11965212 -0.051845435 -0.07747942 -0.31033838 0.6501946 0.2924738 -0.36707452 -0.38753194 -0.33106697 0.7061844 0.38638636 0.2781746 1.1709617 0.054143943 0.8949538 -0.4041646 0.53108764 1.0146235 0.043164447 -0.021417465 0.68432766 -0.23216891 -0.39479804 -0.43033245 0.0633505 -0.98540324 1.3408189 -0.6687582 0.21303664 -0.5097188 1.4037318 0.44704995 1.9819895 -0.3440459 -1.6552676 0.14098261 1.3074243 -1.219006 0.9435982 -0.21318418 -1.2042814 -0.70407265 -0.78888977
865 0.4140402 0.11149766 0.15039086 -0.4628764 -0.64862156 -0.07710756 0.12921219 0.42944348 0.8904496 -0.73922455 -0.015685134 0.18213372 0.5698549 0.014168579 -1.2787693 0.9268199 -0.85160387 -0.070645556 -1.4697462 0.33047837 -0.17749457 -1.0130279 -0.31230518 -0.258223 0.84921545 0.30361015 -0.4455032 0.15600185 -1.1584487 -0.087504745 -0.36815166 -0.06609078 0.12841262 1.5126876 -0.4904906 0.21998322 0.19602117 0.48191988 -0.028384184 0.9424818 0.4256225 0.5988837 -0.04736863 -0.5320128 -0.20833704 0.19947094 0.19679898 0.2041438 -0.0072160573 -0.311435 -0.2236906 0.5574775 -0.6865505 1.0134621 0.7908787 -0.12009694 -0.21253526 0.30019432 -0.39362523 0.057713874 -0.15713459 0.3129222 -0.379388 -0.20095618
2519 0.25025743 -0.16568737 -0.034832466 0.43997478 0.08487198 -0.1889464 0.541953 -0.2896943 0.22781813 -0.58081114 0.41345328 -0.6517967 1.0366406 0.25969765 -0.0868697 0.5218435 0.35406527 -0.30313995 0.09054027 -0.13441503 0.008193437 0.26065302 -0.64515424 -0.78576636 -0.114996456 0.65358275 -0.19940984 0.42215806 -0.40973535 -0.652927 -0.22706407 -0.3889728 0.45588896 -0.6007357 -0.12608059 -0.6470367 0.03290212 -0.027406486 0.6403104 0.93156487 -0.47925177 -0.06838905 0.14996547 -0.4447931 0.007329965 0.70449173 -0.09576757 0.15254289 -0.62740445 0.40960124 -0.57819515 0.81751764 0.5999194 -0.13152005 0.8565471 -0.4095949 -0.39819503 -0.12547025 -0.8151475 0.55312747 0.3637106 0.10382834 0.61212814 -0.36600995
1708 0.09177375 0.26709342 -0.39397758 -0.2996132 0.46195024 -0.109395176 -0.04338896 -0.331688 -0.6471059 -0.06636205 -0.18372814 -0.19794293 1.0209249 -0.46007717 -0.48557848 -0.6482106 0.4256798 0.8398332 -0.18231434 0.76830316 0.1701712 0.034208696 -0.330387 -0.42696404 -0.23368487 0.27931744 -0.39563832 0.10478629 -0.71871734 -0.21319953 -0.15164053 -0.3080448 0.6952907 0.042540293 -0.23968989 0.36356646 0.039991196 0.16569906 -0.18439053 0.08828806 -0.4338874 0.27625573 0.27857125 -0.3337202 0.1691827 1.2000976 -0.1338266 -0.5477854 0.3783756 0.010988388 0.27939612 0.9221147 0.5959673 0.38124126 -0.094965994 -0.19947548 -0.52677065 0.48430586 -0.6310619 0.40401223 0.33784723 0.2475936 0.44772118 0.029358206
2596 -0.097584926 0.14513385 -0.53021115 -0.12193655 0.88028634 -0.17524262 -0.15457389 -0.17372051 -0.4128307 -0.17798649 -0.46478912 -0.42375836 1.1069603 -0.022133045 -0.57684785 -0.3113211 0.29421276 0.29073635 -0.26599136 0.46839845 0.24577674 0.5581499 -0.20036101 -0.25292504 -0.09150623 0.68008 -0.46166953 0.4580066 -0.6015512 0.016562209 0.06584983 -0.34064174 0.6675224 -0.023283996 -0.22530371 0.19879334 0.23660554 0.12552217 -0.43923312 0.3526305 -0.08661231 0.2290895 -0.121091634 -0.5350458 0.26236176 1.1668609 -0.023617474 -0.6637672 0.08052879 0.067298286 0.16495249 0.7258167 0.22719955 0.39539102 0.27246723 -0.5292597 -0.16741866 0.53562176 -0.679036 0.3219096 0.4240957 0.12601945 0.37437364 -0.027911354
1033 0.61276907 -0.47775456 0.8378563 0.30816746 -0.3327955 -0.28728253 -0.53040475 0.63790905 -0.24423699 -0.8125585 0.111183584 -0.6267544 1.28167 0.00935352 0.6121098 0.017326035 -0.6589797 -0.33655715 -0.5845556 0.48945192 0.17954841 -0.15302448 0.10140462 0.4036113 0.52314806 0.15257075 -0.4840043 -0.026831184 -0.40669575 0.5248374 -0.9276971 0.120155394 0.2641947 0.8448111 -0.59551847 -0.47060552 -0.299529 0.43094015 -0.72036 0.6124105 -1.1892221 0.35022807 0.34910932 -0.4780273 0.12755115 0.9465963 -0.10525957 0.17888017 -0.24709456 -0.22862464 0.23549747 0.83417517 -1.5784603 1.3251963 0.03451046 0.67708796 -0.06712232 1.1294969 -1.188785 0.039980717 -0.47209042 -0.016795566 -0.13421062 0.4601114
1879 0.009163437 0.63357186 0.4183353 0.11125862 -0.5687803 -0.54065543 0.13749519 -0.05849927 -0.1621784 -0.004271152 0.15910913 0.5646058 0.41158226 -0.8601714 0.9662853 0.10131157 0.24921936 -0.45925182 -0.93271226 -0.39139628 0.90874654 0.08402426 0.5601059 0.15630998 -0.06749284 0.61876744 -0.19082516 0.96133876 -0.2800496 -0.120688885 -0.49028325 -0.38920793 1.2949558 0.06193282 -0.0057118293 0.43053606 -0.82050306 0.53148097 0.5139815 0.12193338 0.46990106 0.46779746 0.82819474 -0.58710927 0.68937397 -0.18830611 -0.6534333 -0.041346513 -0.53176886 -0.09082483 0.2760622 -0.5508593 0.29917875 -0.15252781 0.04662927 -0.87987036 0.28817493 -0.93919694 -0.43883377 0.10824169 0.52250785 0.5128409 1.0444785 0.7299034
2217 0.2011335 -0.040746585 0.18115178 0.5266622 -0.14021648 -0.14318478 -0.022136997 0.23966229 0.5304719 -0.93088067 0.11433882 0.27806935 0.9768618 0.6623164 -0.13478021 0.36180943 0.5711071 0.10772414 -0.09444623 -0.76056206 0.23294806 0.21144105 -0.57989985 -0.41801363 -0.087691486 0.9933931 -0.0743961 0.44735238 -0.14881693 -0.56798553 -0.62253946 -0.7359235 1.0763787 -0.637338 -0.25133848 0.03677336 0.02456523 0.07746238 0.38692048 0.67015225 -0.3563707 0.20412719 0.26418024 -0.17046885 -0.090624586 0.549086 -0.022836925 -0.3578242 -0.59554756 -0.10122548 -0.8461514 0.57358545 0.862437 0.41150144 0.3622403 0.00015512502 -0.02181728 -0.12677985 -0.8857461 0.4906309 0.35796747 0.43800455 0.71110904 -0.38120708
2868 0.011810005 0.45048767 0.5352211 0.30835032 -0.34016925 -0.10916584 0.23165813 0.17647178 -0.1636877 0.10420522 0.29125053 0.38324723 0.21172875 -0.9000709 -0.024181852 0.24817674 0.71297866 -0.513818 -0.4918318 0.9619643 1.00291 0.1826489 0.83563924 0.031802814 -0.1922964 0.7666299 -0.5432473 0.5026297 -0.44464594 -0.23049071 -0.26210105 0.16131036 1.6903157 0.117687464 -0.68918735 -0.17482822 -0.5855675 0.6529097 -0.40485892 0.09861396 0.2973675 0.19884257 -0.0338071 -0.876005 0.5401693 -0.3326488 -0.7335041 -0.49236938 -0.2885606 1.0129882 -0.5799479 -0.068755284 0.31733465 0.17139538 -0.11224126 -0.73911834 0.33542258 0.63238853 -0.021784263 1.1205511 -0.04572041 0.2689161 0.4257821 0.5649086
150 0.29177883 0.07687274 0.24407569 0.21149158 0.011670094 -0.32127026 0.032846652 0.15500537 0.19249585 -0.6858869 -0.5323306 0.21571909 0.64437246 -0.23036969 0.1623345 0.20250067 0.39297524 -0.29390836 -0.085593395 0.13013229 0.079560265 -0.1573619 0.27501073 -0.72622544 -0.7251751 0.7368905 -0.493825 -0.16570936 0.19210374 -0.6283519 0.042513087 -0.20355327 0.34166706 0.256718 0.26088864 0.6387834 -0.46254686 0.89965266 -0.48737848 -0.36098042 -0.30143186 0.57190585 -0.05568049 0.7711953 1.0250887 0.60207236 -1.4529299 0.16614445 0.25612447 -0.29724354 -0.6308718 0.7654881 -0.021446235 -0.37153435 0.045974843 -0.9918894 0.054171503 -0.5090353 -0.58591545 -0.9382932 0.51430833 -0.26885888 0.3497426 0.65304285
709 0.42970818 0.24231994 -0.08772408 0.3010361 0.2627118 0.34882 0.533351 0.18631598 0.2527001 0.3064351 -0.37121674 0.05184006 1.8661338 -0.052731104 0.6377955 -0.0085720355 -0.31496564 -0.07433609 -0.010073204 -0.10852434 -0.6963355 -0.47013026 0.019532455 0.8775114 -0.16578649 -0.25526264 -0.7171425 0.94653875 -0.87626415 -0.5259861 0.7104811 -0.7933101 0.36348727 0.7802845 0.83514905 -0.88165337 -0.4197431 0.29795521 0.5890785 0.5129723 0.06948657 -0.2145786 -0.70497584 0.35471323 0.5967619 0.53291935 0.24827449 -0.30339882 -0.11820954 -0.28064328 0.06854415 1.206936 -0.10821478 0.33719245 -1.0380511 -0.31643826 0.34845975 -0.02805128 0.29233387 0.15470462 0.22031441 -0.052825674 0.78415763 0.08361184
2655 0.65580195 0.45610538 -0.5395045 -0.34896094 0.016605 -0.49077415 -0.17625913 -0.7252614 -0.5372908 0.07471895 -0.7299665 -0.43320718 0.6547038 -0.5219382 -0.41300574 -0.1651461 -0.19465663 -0.08692385 -0.9352832 -0.28494093 -0.52681196 0.69349825 -0.88596743 0.19045103 0.6655516 0.46408632 -0.09293956 -0.34333992 0.012693338 -0.3843004 0.58098584 -0.53972656 0.99965596 0.4888099 0.5601343 0.6353126 -0.050910432 0.38027188 -0.9606069 0.21618807 0.043080147 0.26272178 0.7536381 -0.41743734 0.2258525 1.0764265 -0.8285585 0.3338695 -0.60460347 -1.014591 0.56168586 0.9263187 0.99442303 0.29920438 0.5393564 -0.23135906 -0.51044303 0.23161386 0.7689309 0.739654 0.3127362 0.0633164 0.5843723 -0.11433504
1251 -0.027294844 0.33253878 -0.19725393 -0.12242347 -0.48213848 -0.52770925 0.27780512 0.47819263 -0.114387505 0.047256015 -0.039060924 -0.08056498 0.6171698 0.17342219 0.030003982 0.22148971 0.5567444 0.43342566 -0.49054775 -0.14765032 0.5072695 0.011228684 -0.27417877 0.043157216 -0.7432653 0.3553413 0.36679244 0.6125412 -0.01010888 -0.31374866 -0.035635725 -0.1989864 0.5289679 0.049441174 0.016396314 -0.24557042 -0.1411355 0.7511614 0.3564382 -0.04911745 -0.5595507 -0.22408454 -0.1869923 -0.31261784 0.22990388 -0.111487746 -0.45322827 0.12973475 -0.16498137 -0.1177873 -0.32720256 0.550633 0.51780933 0.25202966 0.5126338 0.072243765 -1.1787667 0.02628612 -0.38595566 0.4881593 -0.01735844 0.114387244 0.45661747 0.11211724
303 -0.40027258 0.86757004 -0.7779768 -0.7073468 -0.059205543 0.15259464 -0.24565916 0.33664203 -0.45167315 0.2889184 0.31255177 0.17244531 0.664915 0.023323655 -0.0012034401 -0.26291034 -0.053772617 0.37944934 -0.5244949 0.42889035 -0.16145444 -0.24380066 0.1330719 -0.17587431 -1.2747613 0.28552166 -0.5562588 0.32645884 -0.4529506 0.049064364 0.3180347 -0.5004417 0.9092026 -0.18034738 -0.214452 -0.6689658 -0.45567548 0.4526727 -0.4635855 0.29664028 -0.28759 0.14530246 -0.10012399 0.19923072 -0.33133084 0.60824054 -0.75428516 -0.8836228 -0.6506432 -0.0068834135 -0.6985436 -0.062300038 -0.05984452 0.25609696 0.053031214 -0.600613 -0.39778814 0.41265002 -0.48907986 0.8326321 0.36389086 -0.36644074 0.015745532 0.32083064
16 0.01899526 0.2668979 -0.3260943 -0.36982018 0.34286553 -0.1776094 -0.39430243 -0.14215605 -0.7727416 0.03436739 -0.4017611 -0.22585326 0.8874649 -0.3001173 -0.60467184 -0.51683754 0.3865681 0.35619462 -0.16032684 0.58701664 0.28314093 -0.412122 -0.2371154 -0.41352034 -0.32712516 -0.06396399 -0.5281271 0.32083076 -0.5252099 -0.17896461 -0.16877447 -0.18009469 0.62885416 0.043362655 -0.16596632 0.30810192 -0.09106449 0.38523933 -0.24074803 -0.10492268 -0.37546417 0.31877065 0.13260338 -0.2633201 0.53654605 0.9764947 -0.18918447 -0.47414908 0.2741735 -0.107825704 0.4305471 0.86849666 0.7033517 0.38202283 -0.24160396 -0.33945826 -0.49452198 0.44520393 -0.81825286 0.70014524 0.366196 0.009403648 0.42879975 -0.01443505
1944 0.8579206 -0.06443873 0.30568394 -0.45718405 -0.9858904 -1.3527668 -0.8746714 0.49562302 -0.4925196 1.0038459 0.53114617 0.120372325 0.51280355 -0.2578103 -0.16004062 0.12634854 0.57019144 0.6504584 -1.0348392 0.4817758 0.6818812 0.02636811 0.09649036 -0.32250056 -0.03633305 -0.024094729 -1.3772353 0.9731643 0.3247292 -0.78610086 0.36906525 -0.6930296 -0.4528528 0.72330594 0.43217453 1.0805225 -0.8887704 0.6341411 -0.09829985 0.16916792 -0.9001704 0.43981886 -0.30764917 0.45567435 0.063617304 0.20467088 -0.100431286 -0.363807 0.14683782 -0.76854587 0.11667366 0.18242747 0.25699517 0.07072896 -0.23345186 0.44935465 -0.08917256 0.03301346 -0.78202945 0.3406022 1.1712261 0.94716597 0.51254964 0.26866502
101 1.8841313 -0.09743378 -0.09454827 -0.33493388 0.8037619 0.28777277 -0.13051052 0.3863237 0.060405057 -0.24003609 -0.19189595 -0.06587031 0.58527994 0.15447415 1.5421909 1.0503831 0.33449784 0.1444194 -0.71255815 0.4633741 0.5751351 0.23255186 -1.2123055 -0.7042878 0.4105567 0.20345934 -1.1889142 0.6626557 0.16393615 -0.7826566 0.8958447 0.28443387 0.43285498 -0.5572051 -0.34503472 -0.66758054 -1.06192 1.052619 -1.2818294 0.8349495 -0.7857712 -0.4663249 0.14412093 -0.24657317 -0.7154643 0.5437641 -0.45678037 -0.89040506 0.9541374 0.024318224 0.3793099 -1.0818607 -0.17343715 0.47379634 -1.0681512 -0.1647461 0.9116755 -0.7479762 -0.73497444 1.3245128 -0.81950104 0.76312107 0.6477858 -0.3925162
2955 0.30476463 0.10387217 -0.100562304 -0.013620629 0.14904651 -1.2723607 1.2258561 0.56204647 -0.22192383 0.08240028 0.3783063 0.80844516 0.032064926 0.86214834 0.303244 1.1671499 0.27247864 0.00080599694 -1.1089725 -0.190242 0.30815393 -1.4201641 -0.38916117 -0.8788297 -0.07525014 -1.5826721 0.12445694 0.9942701 0.058816276 0.25152698 0.2267733 -1.0132797 1.5955489 -0.46060783 0.334663 0.4817789 -1.1086029 0.15026931 0.17180145 0.70478165 0.23956543 0.62759256 0.14981988 0.23580457 -0.0036646663 1.4662039 -0.31247398 -1.1937516 0.97174835 -0.57907575 0.17480595 0.532164 -1.1080859 0.9960616 0.01947247 0.342891 -0.57773066 -0.5856614 -0.68930167 0.1913097 0.24932145 -0.07389518 0.15705436 -0.9731237
1117 -0.095735565 0.2938959 -0.42951763 -0.22593553 0.38756713 0.0040149805 -0.037658498 -0.38586357 -0.5530166 -0.07787452 -0.30037603 -0.10334522 0.89452714 -0.33890542 -0.4061501 -0.5817782 0.46010748 0.66134006 -0.16659233 0.6109746 0.10377792 -0.12229506 -0.28845832 -0.21952456 -0.38190407 0.3033331 -0.35673064 0.0837987 -0.57092434 -0.16755337 -0.18466328 -0.11964965 0.759222 -0.054147355 -0.30670026 0.288673 0.09266499 0.2502126 -0.2731668 0.064688176 -0.35161597 0.16475546 0.09378196 -0.38010883 0.21850999 0.9910235 -0.15980105 -0.43497655 0.17660105 -0.13317125 0.23409751 0.6357243 0.7054882 0.6450314 -0.2202418 -0.1111252 -0.35610542 0.5269823 -0.6468115 0.5280957 0.33493927 0.18995489 0.40649644 -0.07949171
620 0.68375605 0.20112126 -0.12524076 0.66500604 0.3727917 0.42977577 0.9876971 0.2069512 0.32128266 -0.03283028 -0.77829283 0.08716159 1.8187718 0.37915102 0.5089009 0.13690493 -0.39013073 0.29313743 -0.083173014 -0.27451164 -1.0498227 -0.46075 0.28753337 0.26878098 -0.6469009 -0.11479171 -0.39887708 1.6700658 -1.282727 -0.3933918 0.9168203 -0.81448287 0.090556815 1.1772146 0.7032213 -0.4662153 -0.4436273 0.3816565 0.5084108 0.2885271 0.2983694 0.25400043 -0.85889405 0.28759944 1.1383278 0.7229029 0.57753056 -0.34455746 0.4519532 -0.4542768 0.13627978 1.2230302 0.4064096 0.2720659 -0.5272749 -0.2275189 0.41890785 -0.20508592 0.1371037 0.24143626 -0.04604143 0.5937877 0.8619227 -0.104287356
1180 0.7717283 -0.118083894 -0.4315252 0.12328162 -0.5622023 0.8791448 -0.49722713 -0.23444834 -0.42398867 -0.86629695 0.44508052 0.7472683 0.23009355 -0.7212961 0.64295197 0.92994386 0.13206802 0.2670824 -0.9793537 -1.1014093 0.4613973 -0.14899422 0.15524179 0.13405651 -0.2790015 -0.94257945 -0.45984438 1.0081749 -0.6846742 -0.8085991 0.024044268 0.5777108 -0.060210597 -0.7461772 0.573924 -0.48044702 0.49521205 0.5289395 0.34002832 0.67113364 -0.06399586 -0.4077822 -0.0934943 0.61720276 0.008616359 0.3493484 -1.2316247 -0.64068943 -0.38145703 -0.40869066 -0.11685284 1.526541 0.15468763 0.10800982 -0.16323285 -0.14775355 0.28518102 0.6846491 -0.28169957 0.50731283 -0.2443446 0.59917617 -0.5908861 -0.68764424
1366 0.4182783 0.18322678 -0.4912347 -0.39055723 -0.2694027 0.72451353 -0.83918697 -0.13762908 0.088696085 -0.64373016 0.5315146 0.7006674 0.05494464 -0.85687757 0.9364467 0.9548279 0.2064193 0.5742685 -0.7940972 -1.0679404 0.63928366 -0.32814127 0.14707957 -0.24857648 0.14802924 -0.88823026 -0.605976 0.8711381 -0.48035836 -1.0012612 0.4526359 0.53087515 -0.06693945 -0.5541467 0.7148729 -0.65725595 0.36036935 0.4780446 0.40778038 0.5719238 0.10656574 -0.7241147 -0.103465304 0.46957946 0.11694626 0.48266482 -1.4216284 -0.76544195 -0.57453465 -0.33449307 -0.11825094 1.382778 0.08041762 0.10514551 -0.02652367 0.13441184 0.564175 0.4193009 -0.36983922 0.28132516 -0.27276844 0.65839046 -0.24091142 -0.6426811
2828 -0.36743686 0.32641762 -0.32257044 -0.83458424 -0.28446418 0.311621 0.26751858 0.46659207 -0.5514733 -0.37338665 0.67276436 0.066435955 0.41997746 -0.40872982 0.17071971 -0.005162144 -0.1688987 0.5968689 -0.1454978 0.12848341 -0.38463175 -0.67454916 0.42313266 0.27302203 -1.3207874 0.49689785 -0.29391783 1.0737932 -0.25628623 -0.24198206 0.4162411 -0.054364454 0.9435118 0.08302777 0.16788186 -0.2696706 -0.585407 -0.27479172 -0.6173366 0.4170539 -0.50124604 0.5653414 -0.67389226 -0.1213013 0.074609235 0.5646924 -0.38281775 -0.3920297 -0.5982184 -0.19476838 0.21966696 0.14955667 0.35602114 0.005326957 0.39939365 -0.3294928 -0.9885264 0.55423325 -0.70260847 1.0706377 0.24545315 0.30354756 -0.24325506 0.103923075
486 0.22590975 -0.93733686 -0.4629469 -0.13247542 -0.7367669 -0.71803993 -0.48290905 0.30003065 0.42603484 -1.0783646 -0.23675664 -0.40512747 0.68417674 -0.7484245 0.1574698 0.352717 0.53976476 -0.35106122 0.015316474 -0.47263587 0.12623838 -0.5523326 -0.35478503 -0.63732207 -0.21578488 0.73627895 -0.27188724 0.2501513 0.17515492 -0.37635237 0.087857366 0.4480316 0.85270023 0.32343864 -0.10301597 -0.10896879 -1.6056478 0.60563135 -0.6143288 0.50305724 0.47136214 0.3002501 0.011388698 -0.060980365 0.08452995 0.5197197 -0.73710215 -0.30710655 -0.47995093 -0.7919128 0.13016804 0.42287108 0.24187578 -0.14756998 -0.373004 -0.34381697 -0.51208526 -0.41768554 -0.017639672 -0.3404992 1.2776022 0.68397874 0.5764396 0.07956399
2228 0.5198894 0.76322013 -0.05135616 0.020114921 -0.18012539 -0.50544494 0.86775845 -0.1668871 0.721343 -0.4553319 0.08605464 -1.1230657 1.3879126 -0.15103419 0.14575784 0.6262228 0.5838391 0.02702301 -0.02363132 0.29509982 -0.23081395 -0.24958716 0.2012413 0.50417626 0.55479366 -0.28583917 0.05156859 0.44264188 -0.3398623 -0.28285235 0.030185424 -0.07962237 -0.073191814 0.19274989 0.26351157 -0.9938146 -0.06577621 0.34035802 0.20828752 0.14159624 -1.0639726 0.04120047 0.20145907 -0.5202695 -0.529392 0.42044964 -0.30918258 -1.1459273 0.8784106 -0.24907868 -0.24310112 1.0082135 -0.6445809 0.064212285 0.15871125 -0.17401569 0.029487565 -0.58167535 0.33791596 0.5444001 0.9612199 0.101636775 0.5325676 -0.15079099
136 0.40092307 0.58124405 -0.43776482 0.32071185 0.77465147 -0.5490193 0.28535143 -0.123513766 0.26339036 -0.6260573 -0.004917281 -0.59759897 0.6522779 0.0077382857 -0.22859122 0.6307267 0.32174644 -0.18648678 -0.05816171 0.18144009 0.07596608 0.24440524 0.30099547 0.0807568 -0.12065536 0.80622387 -0.21641321 0.17819144 0.013418911 -0.708481 -0.43060184 -0.8562524 0.3996114 -0.3974128 0.20376182 -0.6311738 -0.19440226 0.6215072 0.2505416 1.0076574 -0.17619094 0.16903885 -0.108285986 -0.31935048 -0.25252447 0.27865958 -0.18929483 -0.17726862 -0.06562119 -0.31838274 0.20604414 0.47653833 -0.13651992 -0.19436121 0.6816008 -0.32056966 -0.042855754 0.07369068 -0.6864292 0.3994459 0.54946697 -0.10173438 0.6786527 0.05906713
1004 0.05392645 1.1830797 0.17665866 -0.33867696 -0.6290711 -0.7887511 1.391138 -0.24713074 0.5073024 -0.6359242 0.17870575 0.045290727 1.3726792 -0.32286093 -0.29748273 0.35187346 -0.64286256 -0.35126066 -0.7219581 -0.31827945 0.17548943 -0.16982764 0.14473654 -0.55509603 0.30698153 0.25995904 -0.07090421 1.0233352 -0.53607774 -0.10015038 0.31036565 -0.4288895 -0.43964642 0.42244247 0.14394532 0.10565987 0.548262 -0.30694562 -0.60449535 0.6262096 0.6560966 -0.32098287 -0.12548369 0.07155831 0.2627697 0.8221708 -0.7318398 0.2010016 0.39896712 -0.6603876 -0.43112072 -0.13426499 -0.3531934 0.6472789 0.053391945 0.74975497 0.86247474 0.6927994 -0.29355618 -0.054075148 0.38482293 0.17575409 -0.31159708 0.1898051
2361 0.51927406 0.75688887 -0.5554889 -0.58996284 0.8014277 -0.22652808 0.21584682 0.7551134 -0.5687157 -0.36597943 -0.25294623 -0.16657075 -0.23566031 0.31055406 0.18459752 -0.10622352 0.50328416 -0.06100536 0.41653478 0.090321 0.008456364 0.08138891 0.1968969 -0.47906497 0.17922686 0.3780151 0.28531724 0.43108734 -0.7548549 -1.111325 0.3397108 0.3209768 0.7901687 1.1197591 0.3576117 0.381041 -0.3258338 -0.37035128 -0.44053498 0.54071504 -0.51689726 0.4486419 0.04960533 -0.39487034 0.5687667 0.5669759 -1.017054 -0.19361797 -0.51353693 -0.25048834 -0.5955039 0.23858918 0.10572716 0.19378823 -0.14160593 -0.8747699 -0.7735854 -0.1721282 -0.80205745 0.11304045 0.2093829 -0.056116823 0.40396935 -0.24868949
266 0.27300966 -0.45406234 0.38410175 0.86915886 -0.4236383 -0.3093448 0.3148293 -0.0088214055 0.13216545 -0.07765346 -0.23283765 -0.27184677 0.19919014 -0.98108685 1.0151762 0.73330384 -0.25411478 0.5322576 -0.52355546 -0.22831163 -0.48090184 -1.1138303 -1.0142207 -0.6999395 1.2808961 1.077732 0.57412696 0.53356314 -0.11285512 -0.2062296 -0.0645449 0.09095839 0.19865437 -0.13359974 -0.26971775 0.4574188 -0.82719064 0.1044382 0.4270431 0.43701115 -0.42466238 0.21433708 -0.031957105 0.88378555 0.8224738 -0.016918954 0.38610974 -0.7476336 -0.32936653 -0.9692596 -0.109540455 0.32796007 -0.37344068 0.7038514 1.0990444 -0.2786238 -0.010525815 0.48500046 -0.40207037 -0.21856931 -0.109334424 -0.8672042 0.16990651 0.46739194
1811 0.54317975 0.37432486 0.5897165 -0.35247663 -1.5087922 -0.40154615 0.8833956 -0.94530755 -0.42724434 0.5597524 0.040368505 -0.097735114 0.38333914 -1.4034489 0.67701364 0.09097941 -0.20375673 -1.1717134 -1.5272706 -0.29222867 1.0989013 -0.2885647 1.0487801 -0.29814756 -0.64515805 0.9801203 0.5094037 1.0769037 -0.14561701 -1.146935 -0.47102475 -1.0065533 1.2220303 0.26278085 -0.03284894 0.46199152 -0.57989013 0.6254961 0.24964872 -0.09503748 0.7306079 0.0055044014 0.97611016 -0.3900954 0.26054302 0.19651242 -0.8060646 -0.57075906 -1.1526386 -0.36553392 0.12975831 -0.5383208 0.10742261 -0.0036522956 -0.3584913 -1.3254079 -0.024643054 -0.89155024 -0.7853849 0.13531424 -0.12984605 0.23717664 0.5406878 0.5485218
777 1.2912508 0.29387277 0.40188038 -0.4941769 0.058176238 1.5440851 -0.41464958 0.1391512 0.33935726 -0.4816653 -0.79311866 0.41756177 0.34840783 0.45904577 -0.22818395 0.5586911 -0.4563822 -0.36641398 -1.7919194 0.51854026 -0.33809566 -0.8625159 0.34478432 -0.745676 -0.029995758 0.95379674 -0.19653101 -0.24850744 -0.79055035 0.3199267 0.6494079 -0.14412357 0.59436184 0.78586805 0.42625895 0.09714857 -0.36275735 0.8912012 -0.61827976 1.5447745 -0.08030393 -0.091804184 0.16455027 -0.6930046 -1.0163454 0.47495788 0.18964091 0.4297176 -0.29058516 0.005695825 -0.018930301 0.7071894 -0.609757 0.021641279 0.52396 0.59566015 0.34100154 0.7005313 -0.6853887 -0.11360876 0.33049756 0.7165035 -0.5157846 -0.3544151
2848 0.8951067 -0.6924889 -0.20790116 0.15231995 -0.24929464 0.45916608 -0.44976163 -0.29372755 0.06749243 -0.8648465 0.544951 0.64420456 0.40814048 -0.33204186 1.0191994 0.50099754 -0.012771408 0.38164446 -0.5991902 -0.844995 0.79597133 -0.06306237 -0.012672986 0.02210902 -0.06811127 -0.8919837 -0.75501055 0.703731 -0.76972646 -0.83238834 -0.2868566 0.25279835 0.16849634 -0.08413726 0.8085321 -0.708639 0.23078185 0.49425608 -0.04048707 0.84492165 -0.46511504 -0.61242867 -0.12985575 0.3894319 0.32712466 0.11007631 -1.1644778 -1.2459241 -0.3382782 -0.16447091 0.08252586 1.6324285 -0.11950307 -0.17952873 -0.09554971 -0.24108058 -0.0124858795 0.3707839 -0.21423456 0.25498775 -0.6109116 0.5559432 -0.46425757 -0.70805013
1666 0.38629338 0.7938428 -0.340683 0.20446615 0.22106946 -0.5475582 0.08848424 0.6108936 -0.1847994 -0.11747122 0.426022 0.011215912 0.23543952 0.352777 0.27269003 -0.13804771 0.5962645 -0.0986851 -0.38144764 -0.53296715 -0.15244308 -0.53551316 -0.10378189 0.058846656 0.291929 0.5488991 -0.2659329 0.29569545 -0.12846729 -0.78224736 -0.5637795 -0.46108636 1.1160338 -0.0500841 0.683697 0.38751742 -0.62568134 0.48136246 -0.9200137 0.028746992 0.08810184 -0.33545497 0.3261794 0.1344774 0.07314131 0.1294932 -1.0567566 0.46136478 -0.12896858 -0.41978294 0.24416564 0.45455518 0.6472999 0.18496631 0.014545828 -0.20039329 -0.8468461 0.35336635 -0.14180014 -0.064469025 -0.23769012 0.29180008 0.79115003 0.41618088
1583 1.0338986 -0.15024467 0.799667 0.20676544 -1.0975249 -1.239646 -0.3652392 0.14943813 0.49371982 0.07629724 -0.33604443 0.3728232 0.71849704 0.056169283 0.5564709 -0.03104132 0.33142537 1.0892764 -1.3949404 0.30928305 0.49386418 0.49293602 -0.35169443 -0.11687179 -0.057912406 -0.16257247 -0.41886088 0.573835 -0.27834404 -0.5704981 1.3912123 -0.25158316 0.50665253 0.37932333 -0.07184059 0.2247357 -0.6013325 0.5376088 -0.2800431 -0.26702303 -0.50052726 -0.3267269 -0.6383568 0.28777957 0.026862605 -0.75408494 -0.1400418 0.04221226 0.6269583 0.02332867 -0.31294098 0.57737243 0.3634808 0.095531434 0.6808957 0.37256008 -0.4764326 -0.421697 -0.7032639 -0.105519034 1.3696817 0.92316157 0.22602625 -0.08303173
1130 1.2023867 0.5743991 -0.72423774 0.0085712755 -0.045851488 -0.9717403 -0.47516698 0.75163835 0.027268117 -0.28658986 0.35036007 0.078715 1.0017148 -0.039725807 -0.07941518 0.091838114 0.70629597 -0.3421206 -0.6161683 -0.38461462 -0.33505014 -0.04438681 0.01603162 -0.026830865 0.2812083 0.49098665 -0.48500022 -0.38497242 -0.26464212 -0.410772 0.022888105 -0.68486446 0.8527537 0.139793 0.28629437 0.10849396 -0.41966552 0.7926715 -0.11268562 0.30145103 -0.039376114 0.3006741 1.1182469 0.3608951 0.08555135 0.016404437 -0.6943073 0.20308307 -0.54496235 -0.20814301 0.14807373 0.38365373 0.60281384 0.07479799 0.156988 0.103298105 -0.68747413 -0.038737904 -0.051210202 -0.31726238 -0.1401284 0.552559 0.8399397 -0.4842269
114 0.9306072 0.6942989 0.54700685 0.44473505 -1.0989451 0.5727386 0.5107262 -1.1020465 0.9168994 1.2223858 0.06984367 0.3155085 2.0000114 -0.5251621 0.7135742 0.8001951 0.14404616 0.8917686 -0.71057665 0.25717345 -0.9023066 0.07228645 0.5931002 0.42604268 1.7666651 0.9440049 1.0408409 -0.08753575 -1.3410381 -1.1708448 0.39986706 0.67202455 0.14748673 0.072798945 -0.32563192 0.5784345 -0.7642816 1.5146276 -0.0056207734 0.5992591 -0.12582615 0.05977968 0.047240745 0.3095772 -0.78635806 0.6214614 -0.4296723 -0.5744021 -1.3172767 0.29773474 0.08090938 0.6574974 0.43497288 -0.73986804 -0.41786724 -0.23158221 -0.029399406 0.2948732 0.07041935 0.6796549 -0.41451874 0.13302647 -0.0880418 0.92911077
2945 1.2609204 -0.08910724 0.35420272 0.7761322 -0.9642717 0.29967383 0.33334404 0.59340686 -1.1362932 1.9058223 -0.32409436 0.39337575 1.3061545 -0.33888552 1.8101859 0.09186372 1.1148179 0.32384375 0.32454544 -1.0590845 -0.28009164 -1.3063893 0.53494096 0.52094537 1.5245986 0.46214047 -0.52935886 0.31111938 -0.08070341 -0.3075019 0.98706 -0.16712296 0.26608816 0.8466577 -0.0165552 -0.09256013 -1.2658666 0.437255 -0.04581916 0.7226874 0.034780707 0.9639172 1.070289 -0.7298371 -0.5735217 1.3569402 -0.2484514 -0.8872323 1.0221215 -0.18735276 0.053689428 0.075874805 -0.33169904 1.2498606 0.98572916 -0.2608378 -0.14246245 0.4510688 0.52488416 1.7768947 0.97858113 0.46888933 0.13183515 -0.7116955
2638 0.5285913 0.48095906 -0.032995883 0.54213524 0.41873336 -0.6133861 0.44314116 0.6033719 0.13538848 -0.3240922 0.03857034 -0.49822262 0.76698226 -0.40667555 0.17248774 0.22945186 0.29049093 -0.533907 -0.67436606 0.3737791 0.086516984 -0.11706756 0.6308182 0.3388581 -0.26870686 0.5802847 0.19405642 0.6541483 0.08611202 -0.08889162 -0.15049689 -0.29850876 1.437232 0.42416087 -0.46321103 0.31036755 -0.7685623 1.1524521 -0.026569767 0.34322512 0.058149386 -0.4298046 -0.35116413 0.11642947 -0.22626808 0.10000273 -0.96800035 -0.010812838 0.5724824 -0.05584751 0.7288786 0.14772545 0.3095154 -0.65585583 0.19798233 -0.060290914 -0.78332025 0.5086058 0.06976239 1.1130241 0.3670424 -0.32853964 -0.056114476 0.15253454
648 1.2586409 1.2028749 -0.83048964 0.1057974 -1.3377733 -0.8970829 0.1606842 -0.027174678 0.93463767 0.10211341 0.32098192 -0.2081547 0.40437427 -0.24701671 0.89091325 -0.7434356 0.042408586 0.3590597 -1.257064 0.17914921 -0.5532022 0.47819093 -0.9373718 -0.4509362 0.2100718 -0.58462924 -0.40737155 0.14966528 -0.09008747 -1.1934869 1.3484311 -0.39867398 0.6536542 0.517722 -0.5034298 0.2977481 -0.37403914 1.1142384 -0.26884344 -0.8236954 0.34145403 0.16516928 0.3858069 -0.42302325 -0.093551636 0.3548321 -0.30367953 -0.03865788 0.18129258 0.16585612 0.6671464 1.1166856 -0.34015632 0.28896627 0.36713514 0.49870917 -0.4876633 -0.42943808 -0.71424556 0.38194108 0.5136704 -0.86019427 -0.33334202 -0.38624138
2427 0.3835564 0.2518623 -0.823468 0.12842217 -0.18545756 -1.1382418 0.0607188 0.288156 -0.13683489 -0.08173933 0.23358758 0.13243763 0.34702623 -0.1504461 0.19388673 0.20517312 0.4347051 -0.27261153 -0.42308947 0.020203147 -0.6698651 -0.15020564 0.07741041 0.026488204 0.28980207 0.38441178 -0.06589327 0.5201654 -0.06251492 -0.21476875 -0.18773438 -0.3448645 0.9692073 -0.33334166 0.5085997 0.42694572 -0.64089507 0.188566 -0.8366527 0.19748887 -0.23438348 0.06799147 0.7483575 -0.032140948 0.35744044 0.3775699 -0.96237755 0.75539476 -0.42841077 -0.37786388 0.3843374 0.5518406 0.33037767 -0.35086498 -0.09666057 -0.4560513 -0.34863657 0.12991807 -0.02045992 -0.2643753 -0.33139506 0.39164674 0.48679864 0.24925883
886 0.7290019 -0.055598248 -0.8217835 -0.6284718 0.40697804 -0.14557369 -0.1863312 -0.83324814 -0.27579755 0.37540925 -1.11171 -0.5317798 1.0678496 -0.13925016 -0.40712175 0.29510576 -0.191304 -0.28271562 -0.8589954 -0.044206638 -0.4862655 0.8119937 -0.95876795 0.35666966 -0.099581555 0.2361667 0.11872336 -0.13299684 0.047516443 -0.25141883 0.7652226 -0.5651061 1.0243167 0.44769946 0.18128316 1.0800494 0.23109746 0.4326252 -0.6643676 0.03952277 0.0436547 0.17707308 0.19966672 -0.7383001 0.15420216 1.3563386 -0.68804526 0.41818807 -0.40386146 -0.5659197 0.074784234 0.866313 1.1210296 0.67299676 0.295457 0.015420879 -0.33940226 0.45711502 0.3814767 0.75450844 0.57452315 0.33604923 0.47299752 0.01244216
2790 1.5708534 -0.45528132 -0.29215187 0.44311333 -0.5939593 0.15290184 -0.2809771 0.67958355 -1.1196162 -0.107526526 -0.624989 -0.08487688 0.0687106 -0.3769153 0.30534577 0.061569016 -0.27926004 0.034677662 -0.9998941 -0.42813715 -0.08255331 -0.19236904 -0.8412382 0.0150555335 0.28590384 -0.23161677 0.21211456 0.8456344 -0.41090453 0.26273388 0.62653047 -0.3535859 0.8760516 0.12596764 -0.11158445 0.45518538 0.29873368 0.35071984 -0.4778286 0.5004369 -0.17521241 -0.3494949 1.1901326 0.9022168 0.95605016 0.4187717 -0.74541456 -0.6949825 -0.040765222 -0.37035614 0.15963905 -0.39549497 -0.75965494 1.5279491 1.3507845 -0.5168844 0.057371143 0.62723726 0.008000224 0.18413857 -0.6076388 -1.075393 0.49990472 0.46872008
3017 -0.39328992 0.31665355 0.06339571 -0.1511951 -0.78093046 0.011046417 0.27907157 0.09118029 -0.25089404 -0.66898334 -0.44741276 -0.29818878 0.31329498 0.0026213385 0.75186914 0.49895695 -0.2974795 0.28652513 -0.66031593 0.40681458 0.045492772 -0.3898017 -0.18919867 -0.052041207 0.056889284 -0.549396 -0.8500738 -0.28820053 -0.7444513 -0.3775825 -0.21200064 -0.58296424 -0.44429463 -0.10829223 0.43782008 0.47226614 -0.7825013 -0.027000032 -0.1862145 0.81514704 0.343401 -0.5227627 0.50428015 -0.09404406 0.16581525 0.470123 -0.5126338 0.0544726 0.33841434 -0.30726048 -0.30920196 0.5854231 -0.32962814 0.2969198 0.050944444 0.5072361 0.26348364 0.4736897 0.052932717 0.4855126 0.3798099 -0.14721254 -0.35896888 0.93681043
923 0.005528042 -0.1277612 0.35981002 -0.002746775 -0.54753983 0.5678316 -0.057373893 -0.26957268 0.41872928 -0.49131963 -0.5937704 -0.34304565 1.1978661 0.1194307 0.6913124 0.84372854 -0.2944632 -0.08308668 -0.39112943 0.31397304 -0.4474205 0.12787509 -0.041287597 0.12679832 -0.14291291 -0.505984 -0.3858225 -0.0074371947 -1.0567671 -0.60666406 -0.67852324 -0.57125205 -0.38606814 0.23480237 0.042618614 0.43814123 -0.34828937 0.1571181 -0.53472066 0.69707376 0.54245037 0.19097503 0.70404536 0.17269528 0.24394925 -0.010190115 -0.46342644 -0.19318889 0.23644963 0.16856271 -0.67709464 -0.028124254 -0.42563325 0.41724896 0.3469995 0.42318338 0.049031775 0.16892748 -0.43406406 0.55860585 0.32177818 0.456609 0.0012048316 1.1142312
2434 1.1705093 -0.78531873 0.41882917 -0.16712026 -0.36137125 0.23332621 0.888538 0.40894094 1.0943516 0.22996463 -0.15879717 0.3777285 1.1538055 -0.118904315 0.19225903 -0.4499753 -0.50006354 0.17878364 0.056432262 -0.39180723 0.4072211 -1.0213182 0.20516609 -0.09503398 -0.9631842 -1.2199135 0.0052109947 0.5693866 -1.1430982 0.18145964 -0.61830515 -0.8336675 0.7902142 1.2721802 0.098832786 -0.09541655 -1.2570156 -0.84413004 -0.25137123 0.36319974 0.0829372 -0.28629917 -0.5611957 0.024754614 0.2284205 1.1034131 0.11650686 -1.0892407 -0.7473962 -0.41326714 0.35666412 0.9380459 0.40027326 -0.07719611 0.310911 -0.4980046 1.2400358 0.040981535 -0.34070364 0.75359976 -0.13368236 0.49556938 0.9581429 0.34221008
3156 0.8127067 -0.46830285 -0.90428627 0.082392834 -0.25762898 0.13092676 0.711178 0.35039204 0.5306174 -0.0016311588 1.0603446 0.6853781 0.89886224 0.15396662 0.81315714 -0.2603615 0.46159357 -0.796726 -1.4050897 0.28067398 0.0412175 -0.5406942 -0.08732558 -0.432512 0.13048787 -0.5028885 0.12415747 -0.061093267 0.15644005 -0.6300685 -0.07017565 -0.4406557 -0.42913875 0.15483813 -1.5644776 0.46135297 -0.8385703 -0.64916277 -0.5800334 0.48497528 0.23306334 1.5244677 0.066400595 0.25268486 -1.0736247 0.77846396 -1.6045078 -0.6455949 0.099582486 -0.33216253 0.30865103 1.5765091 0.33309183 -0.072944924 1.202523 -0.620153 0.3546468 1.1356078 -0.76813567 -0.089628175 -1.0862883 -0.16715407 -0.4518597 -0.06523427
847 0.48714834 0.50639135 -0.764148 -0.014309753 0.31020346 -0.8288472 -0.10114786 0.93518645 0.3008918 -0.33985007 -0.22669159 0.038390912 0.57863003 0.42601466 0.09256713 0.36312073 0.3333488 -0.20632069 -0.3058018 -0.47485712 -0.19549713 -0.10404911 0.21052636 0.034961723 0.38096175 0.80056214 -0.4012335 0.4377165 -0.39454204 -0.51992357 -0.052997928 -0.5150992 1.0710515 -0.3624777 0.45416915 0.21217307 -0.62690365 -0.028428165 -0.18857534 0.68714 0.32131776 0.07959329 0.49709067 -0.03746967 0.16605987 0.33356336 -0.86561596 0.21135208 -0.4500465 -0.21034877 0.06971385 0.0059637157 0.077193804 0.02274983 -0.28362402 -0.7075805 -0.34158498 -0.08804015 -0.38138273 -0.37876692 0.58583075 0.3476172 1.0584795 0.2624173
487 1.3894476 0.6546318 -0.28500113 -0.96097225 -0.8052144 1.1002665 1.2063031 0.6578125 0.5301154 -0.17706549 0.48779047 0.76813173 -0.15106235 -1.0405704 0.31335673 1.0072966 -0.41442183 -0.06572226 -1.1887524 1.1818877 -0.74636817 0.6265044 0.84289265 0.106665716 0.9356521 -0.4799219 -0.055006012 0.27152786 -0.09764192 -0.599006 -0.7484496 0.710468 1.1394942 -0.82691103 -0.31759486 -0.3537482 -1.0944325 -0.56076056 0.61090773 0.6342403 -0.44429967 -1.3022317 1.4692736 0.060432978 0.051682506 1.5177977 -0.24486157 -0.49646166 0.5873779 -0.84237415 0.21696527 -0.090060234 0.024209429 0.33416948 -1.0712825 -0.6245642 -0.66243565 0.7670956 -1.2628692 -0.75227416 0.35904166 -0.13495636 -0.00439992 0.1010024
109 -0.09142833 -0.4954137 0.03368201 0.4199794 0.12834568 -0.4597395 0.7744397 0.5774954 -0.24301194 -0.17081143 -0.4983976 1.6136957 1.1158253 -1.56026 1.5681938 0.42452908 0.8672776 0.5196988 -0.16964465 -1.0824512 -0.43648595 0.17071748 0.60493916 -0.19728422 1.7427366 -1.9077809 -0.8688798 -0.24148685 -0.40591648 0.9969956 0.06280411 0.276884 0.6542132 0.7609314 0.79844624 -0.5210727 -0.1497571 0.22295736 -0.2576496 1.3644822 -1.4104602 -0.11127311 0.3150401 -0.20140429 -0.06761836 1.7436051 -0.16179626 -1.1705736 0.9173325 -1.1682112 -0.23274891 -0.5940916 -0.38813928 1.4032866 0.5562289 -0.15701126 -0.07558825 0.8840728 -0.9799315 0.68953186 0.615893 0.056418777 1.2597178 0.060928717
1587 0.81970876 0.36671126 -0.97970515 -0.10702229 -0.024732461 -1.0901777 -0.37522665 0.26261872 -0.0054155136 -0.32886344 0.22036675 -0.23791365 0.45950776 -0.4826163 0.2591073 0.40440094 0.3838723 -0.35220587 -0.73193115 -0.18698223 -0.08274905 0.0012969917 0.13218547 0.022722473 -0.010046781 0.21860474 0.02835147 -0.12697454 0.08906793 -0.19117141 -0.09504376 -0.85841036 0.7719758 -0.05401389 0.6556751 0.24133985 -0.71737593 0.6998496 -0.7305894 -0.19205146 -0.2792937 -0.118438624 0.50308806 0.4569251 0.4493464 0.25740758 -0.38693434 0.47001657 -0.15030056 -0.49180153 0.7259318 0.36299154 0.30688637 -0.44803253 0.26610354 0.10118361 -0.7246268 0.15335205 -0.17934568 -0.13129216 -0.32290712 0.47517258 0.6444484 -0.16114846
314 -0.09379636 0.39011815 -0.43320733 -0.3396936 0.45784047 -0.082670756 -0.06525835 -0.2104765 -0.69178116 -0.07899332 -0.33319244 -0.07468594 0.9154367 -0.28421813 -0.5506255 -0.56961536 0.34103113 0.5360912 -0.21225393 0.6167337 0.22983207 -0.16945627 -0.213183 -0.3078259 -0.33064818 0.226788 -0.24990036 0.13554814 -0.68048 -0.25587067 -0.059195377 -0.10143863 0.60040003 -0.039306983 -0.31538492 0.26128533 -0.002681097 0.24922124 -0.26173496 0.077076264 -0.36729646 0.19326124 0.010800275 -0.42715767 0.25018755 0.92399365 -0.14060676 -0.46393776 0.24610381 -0.25615203 0.40916243 0.73515904 0.71175164 0.4869586 -0.08222 -0.25260496 -0.4356756 0.39741966 -0.70515746 0.5176909 0.2808571 0.16527101 0.3413139 0.057474043
1411 1.4854453 -0.3649322 -0.15372585 0.4395239 -0.5640264 0.23530915 -0.28168342 0.68849105 -1.0989274 -0.00484458 -0.59291667 -0.054629315 0.14418986 -0.355667 0.39312068 0.14379145 -0.34252554 0.13615431 -0.96051 -0.3827098 -0.11060419 -0.16749978 -0.87907904 -0.044970356 0.3076279 -0.23667942 0.17012997 0.8397843 -0.3887564 0.25351876 0.6705386 -0.39414728 0.8632502 0.099291116 -0.16607548 0.5041078 0.34991616 0.35063034 -0.4126537 0.4081493 -0.1655303 -0.2907183 1.1308832 1.005541 0.9443119 0.3892339 -0.7570575 -0.77971154 -0.07208538 -0.3799975 0.0872889 -0.3981539 -0.80965704 1.4821103 1.358164 -0.47162887 0.04749841 0.6352818 0.078782655 0.15387212 -0.5759153 -1.1253991 0.45244783 0.4601596
208 1.1897875 -0.2012347 -0.35164174 0.23166928 -0.680862 -0.11940593 0.43529388 0.80586797 0.58439267 -0.117456496 0.9629506 0.73473835 -0.2730352 -0.37175816 0.3228212 1.2255659 -0.3483018 -0.849573 -0.28822333 0.25289106 0.13811125 -0.88911605 -0.3492313 0.10378865 0.7441621 0.24807741 -0.72329855 0.80316496 -0.46720266 -0.31495315 -0.32965454 0.19627608 0.5745633 -0.7497936 0.5303695 0.45868295 0.3727935 0.064926825 -0.55875826 -0.6703041 0.2539126 0.0451018 -0.16794294 0.2647313 0.4500024 1.370615 0.5240857 -1.3458354 0.07831396 -0.39338407 0.5030577 0.9425687 0.15589257 0.67355186 0.57639605 0.17390463 -0.11076959 -1.0908154 0.059807573 0.69681543 0.9927751 0.799984 -0.94015896 0.79505205
661 0.5854118 0.53574276 -0.107771754 0.49052012 0.39844018 -0.5951511 0.46364635 0.50300455 0.0037075009 -0.29950744 -0.00735266 -0.43593842 0.771551 -0.42348292 0.16966924 0.22600718 0.3689439 -0.54044604 -0.59015065 0.41503456 0.055714272 -0.019192353 0.6727369 0.4355884 -0.25505498 0.5179503 0.19119973 0.66700006 0.087279916 -0.1093515 -0.14132708 -0.33154774 1.3955096 0.38484535 -0.42471042 0.27920252 -0.7815331 1.1454731 -0.08930923 0.48719308 0.1046672 -0.4299031 -0.32644162 0.06983601 -0.19333965 0.039744593 -0.9385848 -0.092580706 0.5461713 -0.060659844 0.7372066 0.23827536 0.20015731 -0.69137233 0.34664926 -0.21364856 -0.8428749 0.45244345 0.0704445 1.1050214 0.33577538 -0.38186514 -0.011943637 0.099414445
2475 -0.22736737 0.36828434 -0.09177455 0.12950948 -0.36063996 -0.11487936 0.093554355 0.03997264 -0.08455859 -0.3122085 0.16624853 0.20676486 0.41623783 0.13963443 0.06919596 -0.1384729 -0.045883764 0.4942879 -0.051183876 0.7553187 -0.5054353 -0.26993465 -0.094275884 -0.20772997 -0.49102315 0.3624078 -0.31677648 0.34321058 0.024521794 0.022702862 -0.2025961 -0.28223726 0.87772447 0.048399236 0.18858373 -0.16093989 0.035513833 0.51848114 -0.5425418 0.032250103 -0.5498464 0.34032172 -0.013877131 0.49317616 -0.24783811 0.24467303 -0.87980515 -0.22704804 0.0058629494 0.022302037 -0.2621595 0.3675826 0.9175699 0.7303588 0.066849485 -0.36493897 -0.7914908 0.20223862 -0.297707 1.1767561 0.32470948 0.16357167 0.43139517 0.32104474
1012 -0.38013583 0.78470725 -0.29817638 0.05939592 0.050379395 -0.076221116 0.1415531 -0.15066132 0.39149624 -0.4321844 0.48473632 0.010056391 0.2945527 -0.017151058 0.34367025 -0.01783224 -0.18367542 0.4281229 -0.22054917 0.41477308 -0.24104783 -0.30274314 -0.10842996 0.09508929 -0.7108989 0.67689604 -0.35020623 0.1588083 -0.034058347 -0.5161737 0.10433299 -0.25362098 1.2783511 0.10494069 0.3063537 0.024449866 -0.04116465 0.6964422 -0.43804052 0.049607754 -0.27782488 -0.18154377 -0.2667642 0.32749414 -0.06814609 -0.07325844 -0.22932874 -0.43772233 0.3479227 -0.2756456 0.20710039 0.33052918 0.8832514 0.7094539 0.18911827 -0.26947924 -0.97590744 0.33752644 -0.7645744 1.0630655 0.19620591 0.15349782 0.1225652 0.8108283
3080 1.2699506 0.029501976 0.9394341 0.2804396 -1.1750485 -0.38705176 -0.3601988 0.18198824 0.62135255 -0.47191247 -0.44442567 1.0604757 0.540914 0.2955484 0.13515134 0.3852807 0.49027666 0.69374305 -1.8393762 0.3977153 0.29047114 0.53263676 -0.24731423 -0.2780051 -0.4982851 -0.21147646 0.31033564 0.37513673 -0.56148267 0.042968072 1.74848 -0.9928248 0.16686963 0.18788521 -0.08021752 0.957954 -1.4173524 0.16338804 -0.36020795 -0.25022504 -0.38159138 -0.47696105 -0.24942939 0.828687 0.5631862 -1.2374854 -0.29049 -0.27864286 0.76868105 -0.08473787 -0.86656684 1.0564786 1.3167832 0.21996681 0.031505924 0.45373577 -0.5299205 -0.084922224 -1.0648037 0.72878855 1.5175588 0.74598926 -0.10369581 -0.18185137
2398 -0.1388548 0.5380683 -0.45891997 -0.034362067 -0.54763144 -0.50152403 0.032671127 0.005743981 -0.08232788 0.18544737 -0.021973858 0.39433563 0.23349391 0.029262071 -0.32613906 -0.31579185 0.6691785 0.9833325 -0.29784858 0.4558628 0.07041703 -0.030311108 -0.1224775 -0.3135236 -0.5077412 0.5822349 -0.19747451 0.49500638 -0.24166736 -0.093857825 -0.04854842 0.02339539 1.0135069 0.42492473 -0.35724843 0.072237626 0.13834368 0.63756764 0.06939725 0.21899375 -0.44866073 -0.19500713 0.11014771 0.13424756 0.2521949 0.5867599 -0.5356697 -0.12844864 -0.13854983 0.13861926 -0.33242118 0.59160846 0.43099758 0.029612958 0.085670024 -0.32729 -0.86999106 0.44914997 -0.46440396 0.6543585 -0.117432445 0.118141234 0.295171 0.013694149
1143 0.78929335 1.230947 -0.97389245 -0.13679916 -1.2608752 -0.6808084 0.14882183 0.38068277 0.946978 0.04387285 0.3601278 0.06104486 0.32010028 -0.17295296 0.8004893 -0.7524561 -0.07830426 0.11807358 -0.9108888 -0.17240499 -0.67414945 0.6339954 -0.7313972 -1.0646474 0.01582555 -0.46465084 0.46719384 0.113827 0.014142376 -0.7194635 1.6028131 -0.84699565 0.5371681 0.12730685 -0.10106981 0.22917669 -0.40508097 0.45771858 -0.50561816 -0.06973034 -0.069675684 0.1447455 -0.010136162 -0.28910464 -0.039077982 0.5700933 0.26960945 -0.5349038 0.4518728 0.35101852 0.21202044 1.1615684 -0.23141359 0.5489606 -0.012293287 0.23714122 0.20440958 -0.064670525 -0.62476945 0.3971977 0.04804082 -1.0388235 -0.35866836 -0.01535854
2866 0.2278073 1.0797226 0.6757753 0.37296864 -0.64206856 -0.55035394 0.8377203 -0.7583816 0.97811675 0.06842367 -0.16955985 -0.49182162 1.4083809 0.25343195 1.0045711 0.23676147 0.2724493 0.045595292 -0.25999683 0.20774007 -0.017663615 -0.23134623 0.92543393 0.5413495 0.06611236 -0.27392918 -0.40517965 1.1452938 -0.090156615 1.0499272 -0.23426701 -0.33072487 0.8115123 -0.17599037 0.81434405 0.5448355 -1.0458585 -0.05907078 -0.26282325 -0.2814227 -0.83499444 -0.019832974 0.18433169 0.19360636 0.03564616 0.4425286 -0.12258891 -1.0781989 0.032948256 -0.2910156 -0.0955819 2.1170459 -0.50052327 0.29579493 -0.12480139 -0.23959331 0.27631798 0.3082705 0.42429817 0.8281074 0.5848302 -0.001382366 0.9444585 -0.5134949
1887 -0.34733865 0.40498033 0.67142177 -0.07664145 -0.14730054 0.5604482 0.47206566 1.1276413 1.2922798 -0.8135043 -0.8007861 -0.324026 -0.14443979 -1.2636044 -0.33576027 0.54690343 0.37660018 0.22880878 -0.7471042 1.0275674 -0.17803982 -0.43043584 -0.5758778 -0.06749214 -0.6832682 0.34429005 0.34741127 0.2013718 -0.8943989 -0.40642294 0.7279208 0.5145046 0.2615681 0.06658769 0.03594098 0.429719 -0.9393909 0.6234769 -0.41066462 0.24889202 0.46118206 0.29852062 0.32860184 -0.27805528 0.46253678 0.6991387 0.05238287 -1.2578901 0.35036093 -0.45130432 -0.65188086 0.4642595 -0.7000905 0.5423305 1.0517008 -0.24840291 0.13148823 1.0423425 1.0946908 1.4808079 -0.80937797 -0.4870397 1.7195572 -1.2328118
2385 -0.09358388 0.7687679 -1.0378414 -0.1885682 -0.6830248 1.1633878 -0.24664533 1.8301274 0.093052916 0.2837638 -0.09193859 -0.6181537 1.3779898 -1.468224 0.80060035 0.12624669 -0.52471334 -0.22112331 -1.4382344 -1.1120571 -1.134617 0.11570005 0.93158764 -0.15777147 0.42804673 -0.20129953 0.10899697 0.4970925 -0.9094452 0.76343477 0.4869054 0.055506483 0.8393661 1.4720652 0.84266174 0.76131296 0.3055119 0.2265034 -0.29299983 1.1652145 -0.16267854 -0.04805995 1.2930305 -1.3382751 1.1252079 0.66336775 -1.0379851 -1.1081535 0.91542417 -1.084174 -1.3629924 0.51123416 -0.40744868 -0.44019806 0.97841585 0.15822072 -2.071004 0.48656443 0.07972386 -0.71059144 -0.5265924 -0.03726863 0.5496091 0.3720867
2633 0.3162927 0.48747167 -0.4683841 0.18760312 0.18146844 -0.32443908 -0.42566705 0.38338614 0.49656925 -0.6990993 -0.42768893 0.3579496 0.9770818 0.24167939 -0.40479648 0.38964596 0.28245807 0.035915952 0.035455402 -0.7532151 0.16982618 -0.177955 0.034327894 -0.31675345 0.14862305 1.1919705 -0.11943541 0.14262094 -0.45027602 -0.61383396 -0.58485717 -0.5606043 0.97140753 -0.35883927 -0.3282185 -0.20950696 -0.07852261 0.4466958 0.087779105 0.6004176 0.22440684 0.2320132 -0.20126683 -0.21117266 -0.035864715 0.40944833 -0.3433754 -0.5524971 -0.3898627 -0.42362446 -0.16129303 0.181731 0.83079195 0.26704758 -0.086024515 -0.3488116 -0.5958034 0.18073289 -0.32065356 -0.1705414 0.49125972 0.13831292 0.57425225 -0.32601207
1131 -0.03625481 1.0132619 -0.028058762 0.068177775 0.34805432 -0.16083016 0.36206898 0.57312346 0.006859 -0.35576314 0.5466655 -0.051643092 0.8032697 0.18894473 0.49325085 0.2372957 0.018543597 -0.10822192 -0.36247241 -0.69323045 0.4455 -0.18020196 -0.45650277 -0.26973352 -0.13923581 0.34309813 0.13629392 0.45943022 -0.004191258 -0.721189 -0.72628474 -0.13403995 1.0108745 0.01906144 0.32681617 0.14499319 -0.002855096 0.84753036 0.096116394 -0.34717909 -0.19033585 0.12030614 -0.17718126 -0.14986795 -0.24701512 -0.104168564 -0.74283934 0.3489077 -0.049476612 -0.5481738 -0.229908 0.5104014 0.1718926 0.044452395 0.2154411 -0.2925067 -0.7969157 0.21541974 -0.15975194 0.28510037 0.2030658 0.08357958 0.7106537 0.57210004
472 0.11343538 0.16022003 0.59476936 -0.48643255 -0.47843915 0.47490185 0.1578255 0.31787157 -0.091148116 -0.95262134 0.30184132 -0.69991577 0.69450665 -0.32893893 1.4673856 0.5833877 -0.030860761 -0.058854077 -1.546123 1.0188649 0.5054217 0.13907327 0.0998293 0.34254575 0.49015105 0.69329447 -0.7364525 0.32976618 -1.0304362 -0.8755428 -0.05372382 -0.6589762 -0.22470918 -0.25306848 -0.026605 0.39774913 0.36286336 0.38046753 -0.5337748 -0.31416675 -0.62502325 -0.41622075 -0.30908033 0.5829547 0.116246976 0.9164856 0.38982898 0.47906262 -0.6394725 -0.5495554 -0.5102986 0.0016455072 0.40449554 1.0353243 -0.43627343 -0.2150257 0.10969488 0.121669926 0.4131688 -0.20225078 -0.20339522 0.5923216 -0.663959 -0.6232107
2063 0.113234416 0.062383547 -0.23700956 0.45678312 0.5086751 0.5648904 -0.2814638 -0.2418092 0.6825118 -0.81333447 0.9207516 -0.122116745 0.8438843 0.50300413 0.12765123 -0.23466592 0.55544794 -0.24410056 -0.98531777 -0.8727961 0.50600857 0.4128906 -0.6005574 -0.61095613 0.24731608 0.41043338 -0.9718969 0.864819 -0.312394 0.0021811482 0.023038624 -0.20014198 0.8197463 -0.7180979 0.8875627 0.07451631 -0.7555638 0.2125116 0.094633415 -0.030791938 -0.66538185 -0.23191403 0.18834633 -0.3175765 0.56019336 0.2288 -0.14856227 -0.07077919 -0.7887115 0.0231949 -0.6793853 1.0598462 -0.13322091 0.1644441 0.116220914 -0.37341723 -0.018043542 0.59531456 -0.21345323 0.81769323 0.22106913 0.4843363 -0.7323214 -0.12222225
247 0.28803265 -0.066406965 -0.43825215 -0.13227732 -0.4472895 0.2824728 -0.4964666 -0.4418801 0.27585644 -0.8168471 0.76468015 -0.01938626 0.21619669 0.62723017 0.7053383 0.5210416 0.37679088 0.21536733 -0.89686394 -1.0242634 0.5141119 -0.11525264 0.26757818 -0.15785725 0.46824273 -0.123952284 -0.9254213 0.71668005 -0.7935913 -0.59085613 -0.18708868 0.40107143 0.20982683 -0.654131 0.843406 -0.4196626 -0.01697369 0.88894093 0.38208416 0.20898849 0.06884076 -0.6076879 -0.505549 0.12199009 0.4185072 0.36873055 -0.6944217 -0.9114768 -0.43945336 -0.37462547 -0.22785223 1.1053208 -0.28332856 0.54394937 0.02756789 0.04507706 0.6486556 0.5388664 -0.49080506 0.6638216 -0.42954972 0.88631725 -0.73873305 -0.27204415
1644 -0.14973225 0.615003 -0.060318455 -0.26758397 0.06980197 -0.29092708 0.1916068 -0.047595978 0.23394133 -0.44428667 0.21347146 0.16829035 0.30683446 0.033720616 0.08355611 -0.16615157 -0.14049049 0.045044847 -0.21503311 0.4781395 -0.34806833 -0.31396997 0.18822533 0.0037889665 -0.4792758 0.5438637 -0.41618416 0.3645886 -0.08778512 -0.33685276 -0.053185273 0.0012984333 0.7637623 -0.039836023 0.30581048 0.13095398 -0.21843599 0.6589194 -0.52069014 0.4462743 -0.5234553 0.29248962 -0.33920422 0.29304764 -0.039993286 -0.2000899 -0.39233384 -0.45035493 -0.2311238 -0.10994103 0.3142644 -0.002168102 0.8186672 0.6560045 0.27064365 -0.1702285 -1.0881797 0.2621926 -0.38440946 1.2149537 0.36992487 -0.17775284 0.17141806 0.5829769
3241 0.5813445 -0.15176857 -0.14261685 -0.32736877 -0.48495957 -0.00966342 -0.5503985 0.029402167 0.30567205 -0.50138223 -0.2373168 -0.29264152 1.1109765 -0.55650306 0.3346007 0.29811704 0.75671786 0.0122978445 -1.046684 0.9664519 -0.11955355 -0.87367713 1.4354349 -0.3175762 -0.2197314 1.2856 0.9905277 0.036885593 -0.51526994 -0.8597278 0.061488315 -1.0400368 0.5996566 -0.06731156 -0.03568631 0.30103377 -0.2223657 -0.36522636 -0.6592126 -0.51581585 0.9922291 -1.8950572 0.14298616 0.6659028 0.5081229 1.2766085 -1.1725941 -1.3133594 -0.2113444 1.7559286 0.64286965 1.247804 0.6789287 1.0738163 0.049311165 0.1624891 0.20423463 0.7701832 0.16198112 0.5861626 0.14644666 -0.7275194 -1.1223341 1.1507616
2506 0.4833244 0.8772839 -0.45984733 -0.54275775 0.64601237 -0.4938818 0.33736652 0.59375393 -0.3076755 -0.47555873 -0.18782455 -0.45236766 0.3017462 0.2841177 -0.26142347 0.3276568 0.7041944 -0.13019553 0.3651894 0.21974306 -0.11804144 0.21068583 0.20910975 -0.32825732 0.1909416 0.27077255 0.1305844 0.13570417 -0.06502374 -1.1819104 0.42969972 0.059494223 0.44023463 0.99036306 0.69524854 0.037099805 -0.2870911 -0.16367164 -0.104866736 0.628318 -0.7313956 0.03083685 0.01831251 0.07963198 0.49547553 0.2752084 -0.5909538 -0.2902004 -0.5639301 -0.38619953 -0.956049 0.30881393 0.074104816 -0.17827943 0.14790684 -1.0069565 -0.35050353 -0.064342566 -0.92860854 0.19718523 0.0636429 0.12854534 0.19470422 0.11418763
2853 0.25477517 0.23828381 -0.370398 -1.2786701 -1.2226644 1.2715058 0.6840556 -0.3401269 -0.7696094 -0.8573853 0.8274382 0.47439107 0.6807165 -0.90835494 1.3101845 -1.1301003 1.217729 1.1669623 -1.0757564 -0.39011392 -0.3775599 -0.5569596 0.19471645 0.80424434 1.594721 0.90436965 -0.10741337 0.9982988 -0.9572807 0.9661485 0.47981006 0.78879035 -0.5556137 0.7657286 1.1269287 -0.63943464 0.30857447 1.1611811 0.24651052 0.21852937 -1.030474 0.77129686 -0.31321597 -0.010278034 -0.14269607 0.8786587 -0.3918251 -0.4796968 0.359916 -0.57129467 -0.8379884 -0.24789922 0.84398973 0.65774876 1.5337074 -1.02977 1.1768141 0.04352574 -1.5581117 0.72862715 0.2868752 -0.6249811 0.8793927 -0.38158676
2507 0.45399427 0.41574705 -0.079722 -0.12755093 1.1260105 -0.43874547 0.13742048 0.33009347 0.061946075 -0.70431113 -0.070998505 -0.6156123 0.6258081 0.23696023 -0.15356953 0.3790157 -0.00094551453 -0.1625108 0.081425436 0.15651163 -0.06837117 0.66039884 -0.011338294 0.07550639 0.15125605 0.09457995 -0.50646806 0.2635307 -0.24931131 -0.45917186 -0.13304028 -0.70225245 0.43707013 -0.30775318 0.44010356 -0.53337204 -0.0671106 0.34509635 0.29258308 0.97410554 -0.24888533 0.3000129 0.26398116 0.31026164 0.20829852 0.41408843 -0.10092169 -0.18977045 -0.3661869 -0.17776886 -0.6727487 0.57018554 0.0038649135 -0.3385857 0.5315832 -1.0468538 -0.22395371 0.0017317277 -1.0055761 0.45740783 0.9634523 0.032158874 0.27413663 0.062656194
2166 -0.354477 0.19242829 -0.43373036 -0.16662833 0.14123155 -0.06881577 -0.25451395 -0.27060694 -0.5920325 -0.18107645 -0.32601896 -0.3649036 1.0164101 -0.22450258 -0.5474286 -0.48721647 0.3439107 0.36380127 -0.07738356 0.601282 0.24290936 -0.14572233 -0.40078405 -0.49748725 0.047001164 0.25822526 -0.28422868 0.3405734 -0.309961 -0.23347709 -0.095568 -0.15979028 0.63198173 0.06676614 -0.23154397 0.29570407 -0.13897566 0.40738732 -0.10698465 0.090383865 -0.30046228 0.43993407 0.30533725 -0.29416314 0.5232513 1.1784086 -0.31365734 -0.44662496 0.21032271 -0.3041143 0.4810885 0.86146665 0.4922619 0.12672995 -0.08711919 -0.33705568 -0.5911946 0.22664727 -0.44194826 0.71723413 0.5955216 -0.045098983 0.40529227 -0.19513333
