34 64
1 0.091823034 -0.26670095 -0.030798288 0.01842738 -0.09255591 0.06035939 -0.3290323 0.011186129 -0.07387237 0.036137547 -0.34619784 -0.0016281194 -0.1696649 -0.006646415 0.17060147 -0.44390416 -0.10034266 0.08109201 -0.25539228 -0.027343784 0.030351173 -0.22131962 -0.2023692 0.1145657 -0.29188067 0.2200264 0.003772107 0.051405855 0.20448487 -0.28052163 -0.3153796 0.027806217 0.07723827 -0.12879054 0.048201587 -0.106810085 -0.0048917136 0.04101235 0.1431955 0.25047392 0.073478006 0.057420433 0.24088334 -0.05773533 0.27033627 0.06736079 -0.02757949 0.08446722 0.077068694 0.25592577 0.18364751 -0.15952288 0.19815874 -0.06167001 0.029628541 0.044325992 -0.017940702 -0.14220113 0.10100662 -0.13031891 -0.1587966 0.04370656 -0.027600784 0.17956421
34 0.379466 0.124874696 0.027786827 -0.2613667 0.29266793 0.2197494 -0.16177276 -0.027351158 -0.29327133 -0.042305436 -0.08363102 -0.030775256 -0.13023342 -0.028491333 0.026801165 -0.35312447 0.10446478 0.17276253 -0.24931194 0.013390869 -0.14749557 0.06255899 0.016129958 0.019466475 0.032475654 0.29667526 -0.0016454785 0.0059144213 0.056097776 -0.28602886 -0.14958997 0.19994988 0.31514904 0.052015208 -0.14467962 -0.04364944 0.08045355 0.020165246 0.2793007 0.037313193 0.1451632 0.05411651 -0.048759773 0.15436885 -0.06797675 0.05197237 -0.26170275 -0.08934962 0.18895361 0.2090661 -0.287726 -0.33587083 0.04142976 0.27298838 0.23479022 0.008109279 -0.14787294 0.0402338 -0.23070475 0.060001407 0.012885609 0.3225908 -0.1191795 0.049012095
33 0.38446343 0.1280921 0.05278141 -0.23470023 0.34802216 0.20896025 -0.13018739 -0.024970321 -0.2638109 -0.028928686 -0.09054238 -0.041166853 -0.16736385 -0.011535016 0.057132527 -0.31958717 0.07726005 0.15838437 -0.25595927 0.02738731 -0.18159999 0.009918023 0.064929284 0.028221322 0.06724934 0.28924906 0.049126953 0.07135909 0.029462958 -0.22578059 -0.11700836 0.23523311 0.25192493 0.07437749 -0.13655442 -0.037270762 0.1299274 0.03221751 0.26152235 0.049664754 0.17520256 0.11404023 -0.07562778 0.13669309 -0.07961344 0.108367845 -0.28915635 -0.069962315 0.19434993 0.21677327 -0.3270266 -0.3463373 -0.006461714 0.31890652 0.16000633 -0.062425166 -0.15995747 0.07956276 -0.20843375 0.05085323 0.034581188 0.3316005 -0.06672652 0.09001096
3 0.21220079 0.01118124 -0.018605284 -0.1257808 0.10661956 0.12395357 -0.25942668 -0.08716204 -0.24158451 0.028775396 -0.15363628 0.012024537 -0.15340285 0.013709785 0.029969787 -0.34524712 0.018830158 0.21102917 -0.2481307 0.014895044 -0.14866446 0.015064528 -0.09751651 0.015745092 -0.14060587 0.26383623 -0.081048444 -0.01713757 0.21310356 -0.34856278 -0.18600404 0.25722682 0.22151977 -0.030599207 -0.0031011526 -0.12275366 -0.020706775 -0.081581995 0.17309976 0.32414067 0.025923485 0.018281605 0.13366601 0.016531268 0.14671923 0.04804849 -0.20150734 -0.0365408 0.09140803 0.21132562 -0.10011551 -0.20640765 0.14607918 0.16713528 0.04872437 0.026568675 -0.13814208 -0.19214632 -0.056029476 -0.021329135 -0.049309038 0.17911033 -0.1242913 0.076182045
2 0.11588999 -0.110601224 -0.02053847 -0.027375206 -0.004407457 0.042097792 -0.3545948 -0.11962937 -0.18515442 0.098673776 -0.2704445 0.035814654 -0.22094452 0.04057997 0.07175812 -0.38535374 -0.044891186 0.20532893 -0.2607681 0.004337013 -0.123014644 -0.070846386 -0.14618024 0.023659496 -0.2505713 0.24509463 -0.12452284 -0.013505616 0.2957741 -0.38114616 -0.24297084 0.28182703 0.13396536 -0.10546243 0.08453752 -0.1471835 -0.08615828 -0.13451383 0.100015275 0.4856117 -0.01386697 0.025110709 0.2648244 -0.07145124 0.29861993 0.0672349 -0.16326219 0.019446457 0.053245213 0.23702046 0.02216535 -0.12893604 0.21846722 0.08288479 -0.071817786 0.00992575 -0.10501 -0.33367953 0.060598794 -0.10203726 -0.0890851 0.12622698 -0.13509703 0.13157535
4 0.10363171 -0.10095925 -0.036300596 -0.032479994 -0.03201796 0.038883343 -0.37996152 -0.116351314 -0.22017354 0.08881905 -0.25982335 0.049528915 -0.20121023 0.05266218 0.057946626 -0.38457134 -0.029299015 0.2209876 -0.27490684 0.0069406517 -0.12056037 -0.054868408 -0.17858209 0.016693695 -0.29420877 0.2384736 -0.13556013 -0.0485352 0.3182505 -0.41702735 -0.2564964 0.30060086 0.14820829 -0.11617842 0.105910555 -0.16002303 -0.10459301 -0.15706667 0.099115156 0.51937324 -0.05163491 -0.0146043785 0.2833206 -0.096114576 0.3285487 0.042917106 -0.16587955 0.01937322 0.03364215 0.23873354 0.047101565 -0.12508638 0.23278637 0.075108536 -0.07346031 0.03187832 -0.10332454 -0.3622088 0.074659675 -0.10044046 -0.0944098 0.09410164 -0.144771 0.12641165
32 0.30720586 -0.044596896 0.05725033 -0.2735692 0.03635396 0.124425605 -0.30535212 0.037823632 -0.2092349 -0.18196513 -0.09894855 -0.15863045 -0.08819775 -0.033626262 0.13836443 -0.58591926 0.12534183 0.005285728 -0.16800773 0.055476673 0.0583051 0.09536159 -0.25202996 0.0056488146 0.12960303 0.1356206 -0.08055266 -0.13797668 -0.020075299 -0.20280513 -0.22627217 -0.0016088742 0.33305317 0.101445176 -0.20218974 0.0010213518 -0.058576446 0.19487695 0.2997104 -0.13084503 0.109080106 0.006752722 -0.011548729 0.22330378 0.07647621 -0.017620737 -0.17428364 -0.07816989 0.04938433 0.11539155 -0.089738704 -0.16984953 0.14254478 -0.08863469 0.4315767 0.119390525 -0.064906105 0.12565668 -0.34656754 0.051505376 -0.008115276 0.14513014 -0.08922287 0.06689678
14 0.17487091 -0.08730704 -0.004141621 -0.06030842 0.042169146 0.112987444 -0.28682742 -0.04307431 -0.17251308 0.053433515 -0.22678432 -0.015196376 -0.16780311 0.007298386 0.092990674 -0.38547862 -0.0357037 0.15465388 -0.26133105 -0.0050945524 -0.08545612 -0.09669661 -0.13684098 0.044659834 -0.17906849 0.23759256 -0.039765727 0.013730549 0.19353832 -0.31000912 -0.2322161 0.19253252 0.15601088 -0.04443775 0.009482711 -0.10899784 -0.0033984163 -0.026402097 0.16869266 0.30159652 0.06282581 0.04418441 0.16236512 -0.0050056484 0.18945459 0.07750962 -0.14880745 0.015910376 0.076013684 0.22911677 -0.019932512 -0.19504087 0.13679229 0.089402 0.01580186 -0.0015590471 -0.08446845 -0.14584199 0.007730948 -0.08337274 -0.07235967 0.13187042 -0.065288484 0.13157621
24 0.3969325 0.10480142 0.08263167 -0.3469203 0.21536681 0.16503787 -0.25827804 -0.018015485 -0.2912927 -0.16650468 -0.019953802 -0.1325444 -0.12262932 -0.02014442 0.08380364 -0.5147708 0.21132451 0.09225236 -0.19865386 0.075396135 -0.06096942 0.17247912 -0.13059056 -0.026573574 0.21255952 0.18872556 -0.106358744 -0.14311796 -0.023835173 -0.22559737 -0.14588052 0.14155988 0.40396807 0.13236031 -0.23224314 0.0060760714 -0.03982499 0.11036252 0.32821333 -0.10617135 0.13063172 0.0072912285 -0.10274513 0.26366368 -0.026892299 -0.011818727 -0.2790818 -0.15314646 0.09148498 0.11571795 -0.2937658 -0.23787041 0.07517096 0.10393931 0.40484256 0.062108953 -0.10395348 0.104765385 -0.41968125 0.10902382 0.056621708 0.27671614 -0.14461708 0.02928927
9 0.29211307 0.030167634 0.01950689 -0.17566223 0.18878803 0.17652172 -0.19647731 -0.0072768796 -0.20828126 -0.015706936 -0.14686151 -0.032060105 -0.1445375 -0.0075563495 0.07989173 -0.36900938 0.040625427 0.14320153 -0.23161532 -0.0015770714 -0.11094951 -0.028971747 -0.0239384 0.045793097 -0.033148807 0.26910278 -0.008952774 0.031121014 0.07795179 -0.25526074 -0.1748931 0.15677498 0.24670245 0.013315293 -0.101700135 -0.06602185 0.05780923 0.037154455 0.2441798 0.09054133 0.12934756 0.06930072 0.014500496 0.113724746 0.012064116 0.060947783 -0.2006385 -0.051357318 0.14520247 0.21386318 -0.1793703 -0.28051966 0.062019728 0.18710613 0.16918355 -0.005310788 -0.10306614 0.012224273 -0.14368953 0.010919601 -0.013530375 0.23648386 -0.078685194 0.077347115
8 0.14518026 -0.068853416 -0.023779698 -0.05302866 0.024701837 0.08450004 -0.34371898 -0.10304479 -0.22842772 0.07801265 -0.23610291 0.038739447 -0.18590051 0.016116291 0.047260687 -0.35844377 -0.035593163 0.22353244 -0.27790782 -0.007035215 -0.13470483 -0.06527251 -0.13964194 0.023176957 -0.276116 0.26978406 -0.10652023 -0.00965757 0.30894682 -0.40752104 -0.24275036 0.28841898 0.16366524 -0.09614902 0.07368738 -0.16927764 -0.044562377 -0.12488706 0.1322466 0.4597637 -0.01804462 -0.0017113979 0.23606987 -0.069784254 0.26133698 0.067106545 -0.16264464 0.009200898 0.06523492 0.24142176 0.004968339 -0.17837846 0.18900968 0.1371123 -0.05612302 0.012267239 -0.119716644 -0.30639482 0.054675892 -0.10178974 -0.09243532 0.13683057 -0.1274555 0.1052909
28 0.3193004 0.0079246955 0.04543023 -0.28547156 0.061169617 0.10471681 -0.3026671 -0.013189993 -0.26231968 -0.16504171 -0.06215771 -0.13867024 -0.09404164 -0.033611435 0.084738016 -0.5315291 0.14022678 0.07587914 -0.18288234 0.07139556 0.008614708 0.16495734 -0.21337368 -0.030751955 0.12861843 0.16162857 -0.13040745 -0.16832498 0.05426014 -0.2720479 -0.1888048 0.09456918 0.34448746 0.08870381 -0.17221895 -0.01411704 -0.10699974 0.09645355 0.28241506 -0.04231612 0.07016082 -0.044829402 0.0052830335 0.20348117 0.08844356 -0.03615019 -0.19256835 -0.1012747 0.04474162 0.09689369 -0.12779759 -0.15820628 0.1518156 -0.008060905 0.37954718 0.10657754 -0.08601913 0.016551629 -0.35809836 0.047906753 0.008802766 0.19146036 -0.15084413 0.050217014
6 0.09593762 -0.5726233 -0.059658248 0.109315686 -0.19143479 0.07273843 -0.36689496 0.19072276 0.070608936 0.031375173 -0.60625136 -0.06414453 -0.2456499 -0.047333524 0.39400992 -0.66370094 -0.28452134 -0.0805616 -0.33749798 -0.07212288 0.16054946 -0.5260739 -0.27366275 0.26690704 -0.36938083 0.24715994 0.24088122 0.2667018 0.11303737 -0.18535392 -0.48143905 -0.20170055 -0.061419263 -0.15934111 0.028223187 -0.07468045 0.121638894 0.28395292 0.16802345 0.10216945 0.26455635 0.18724538 0.3041853 -0.09335137 0.32848305 0.19193633 0.07326359 0.24481146 0.16105457 0.40491214 0.40806946 -0.2595596 0.23308176 -0.25096273 0.08153057 0.052979507 0.038346946 0.07433272 0.22295307 -0.2722717 -0.26542112 -0.04805387 0.16520193 0.38510513
7 0.13976504 -0.51207465 -0.056341827 0.058866948 -0.12688941 0.137316 -0.3068985 0.21781889 0.054270018 0.014360646 -0.543672 -0.07943562 -0.20291665 -0.07632123 0.3816333 -0.6517972 -0.24602664 -0.09049435 -0.33487317 -0.070913985 0.14151387 -0.5010958 -0.23959704 0.2663238 -0.2903419 0.25403568 0.26480588 0.25761995 0.029878445 -0.14794192 -0.45191908 -0.24396142 0.0053780815 -0.097141765 -0.050894007 -0.059517324 0.1734095 0.33857012 0.2169026 -0.02312499 0.31756368 0.19334553 0.19498947 -0.024248036 0.2208143 0.19236116 0.0431829 0.21662381 0.18114023 0.3799932 0.3354012 -0.30552837 0.17277808 -0.22806521 0.16314028 0.07148923 0.013996265 0.17989707 0.1634856 -0.24333274 -0.2435581 -0.025378747 0.1840186 0.34763733
31 0.3011995 0.07066631 0.015551896 -0.17929292 0.21255627 0.163284 -0.1920756 -0.058823306 -0.257469 0.008066584 -0.1129502 -0.025539218 -0.15077552 -0.0048522996 0.02881128 -0.3382385 0.05470959 0.16613351 -0.23009181 0.015944077 -0.14920627 0.034374967 -0.029002298 0.010579246 -0.014752927 0.26904756 -0.03620701 -0.0074280687 0.1176854 -0.28633946 -0.15993746 0.23368087 0.25088042 0.02104586 -0.073659316 -0.06755217 0.03169524 -0.0313345 0.22365367 0.15716194 0.101372875 0.04961661 0.023291215 0.10149266 0.030396735 0.060345616 -0.23619166 -0.0579247 0.13355787 0.20796612 -0.20738365 -0.25770324 0.084755026 0.21175502 0.13413717 -0.012623133 -0.1191776 -0.06772044 -0.16508064 0.016636139 -0.00093307684 0.2636623 -0.1139052 0.0702223
30 0.4367505 0.16452089 0.08112272 -0.34032676 0.3220102 0.21085547 -0.19296761 -0.008977457 -0.3063066 -0.1231067 -0.01577915 -0.112621985 -0.13510713 -0.021394895 0.057502575 -0.4418096 0.19724584 0.14999193 -0.22823264 0.057506397 -0.10085055 0.15548526 -0.03269408 -0.019224023 0.17953672 0.2570389 -0.055932432 -0.064907484 -0.017054506 -0.26654738 -0.13026069 0.17174804 0.39320344 0.11113391 -0.21264237 0.0028899247 0.025374174 0.071593404 0.32937455 -0.08527774 0.16460732 0.05033507 -0.10637987 0.25899926 -0.10206846 0.014310753 -0.281038 -0.14927517 0.16059832 0.16451307 -0.36595067 -0.32202974 0.036191564 0.21784788 0.37664512 0.011593251 -0.12457312 0.113610364 -0.3887706 0.11579243 0.054087453 0.36612964 -0.15183763 0.023887133
25 0.35541236 3.9389208e-05 0.086380355 -0.36649764 0.019825308 0.09485262 -0.352383 0.019975333 -0.26837882 -0.25758445 -0.03455699 -0.20295207 -0.076347135 -0.036914926 0.1269603 -0.65144706 0.21757697 0.008865737 -0.14115223 0.08341122 0.08912074 0.23305982 -0.3132779 -0.03666055 0.23752011 0.107688405 -0.18239692 -0.26075885 -0.03649437 -0.21837421 -0.22083238 0.008806272 0.41729078 0.1318755 -0.24803345 0.038242176 -0.15467085 0.18794896 0.34242883 -0.20371684 0.08014324 -0.0568517 -0.03080139 0.29418227 0.085263945 -0.088584356 -0.19999358 -0.15561794 0.011924074 0.05811801 -0.13536988 -0.12793481 0.17652477 -0.13842487 0.55484325 0.17099248 -0.048500896 0.11008658 -0.49965075 0.102011755 0.024898209 0.17186119 -0.15077001 0.01645541
29 0.27880386 0.033426754 0.04010954 -0.206561 0.11458268 0.13131674 -0.26285315 -0.025517358 -0.24262857 -0.057510242 -0.112749316 -0.06263556 -0.1430115 -0.007838372 0.08683185 -0.4166499 0.1027947 0.13518906 -0.2153699 0.028203228 -0.07573043 0.05776083 -0.12658459 -0.004217696 0.0017770457 0.21636955 -0.09004971 -0.0597531 0.08034507 -0.26426753 -0.17741089 0.16853486 0.27907655 0.039044615 -0.091907136 -0.049455944 -0.030126756 0.028553275 0.23375267 0.12294623 0.07112349 0.008808743 0.040717024 0.10734981 0.08032021 0.030488612 -0.20399652 -0.08011472 0.08553143 0.1746816 -0.16479172 -0.19879253 0.103763655 0.08914111 0.2140104 0.049083304 -0.09751083 -0.029074267 -0.1957322 0.008370842 0.008908839 0.17529514 -0.10367179 0.058697555
5 0.09064196 -0.49191806 -0.04987077 0.11259327 -0.13197337 0.09451004 -0.35389814 0.14585605 0.037214644 0.051283896 -0.5358158 -0.038676783 -0.21230638 -0.0491132 0.3416449 -0.5845414 -0.24271898 -0.024145212 -0.33726788 -0.06378513 0.09975781 -0.49134204 -0.24243265 0.24864654 -0.383288 0.24689254 0.20565365 0.24052103 0.13931113 -0.19889045 -0.4369431 -0.12696992 -0.022514524 -0.15008627 0.033775426 -0.1048656 0.13276476 0.22621499 0.17307499 0.1649214 0.22594428 0.16335472 0.27622432 -0.09039423 0.29098222 0.18243651 0.04429182 0.19863792 0.14530429 0.38500205 0.3353088 -0.2639166 0.19627662 -0.1666668 0.029250205 0.03456956 0.011530446 0.03291374 0.22530249 -0.24295075 -0.2479593 -0.027651241 0.14094757 0.3258447
11 0.10674244 -0.49759412 -0.06144776 0.13004865 -0.10717741 0.13769406 -0.30619952 0.15838297 0.058091935 0.07756223 -0.56438315 -0.038597032 -0.2282249 -0.05861531 0.35179675 -0.5809204 -0.27872017 -0.03800449 -0.36299428 -0.07361129 0.07468725 -0.5349517 -0.20843156 0.2687222 -0.37501162 0.2674322 0.27742532 0.28619504 0.11094499 -0.18681325 -0.44442487 -0.14641535 -0.04679601 -0.12368608 0.019512512 -0.1062102 0.19722596 0.2510769 0.15942273 0.13626532 0.28553647 0.20761459 0.24190785 -0.09524795 0.25698566 0.21306239 0.031227173 0.23916402 0.1732524 0.4109884 0.3331084 -0.31535578 0.1566859 -0.14239235 0.013986083 0.016257353 -0.00035251724 0.07006787 0.26887175 -0.27214888 -0.25593758 -0.027143253 0.18089406 0.36924565
26 0.39623097 0.019300276 0.09354829 -0.41630122 0.03301437 0.11520592 -0.3637902 0.027025942 -0.30967835 -0.30051297 0.0033092299 -0.2196481 -0.056582686 -0.035038535 0.12259434 -0.68480784 0.2463937 0.019089434 -0.15838587 0.11522411 0.09958829 0.27951482 -0.3257283 -0.062303875 0.2712336 0.1167717 -0.19981267 -0.28731048 -0.023673004 -0.24910906 -0.22250617 0.014380711 0.45916876 0.16186315 -0.28049856 0.024375755 -0.17676708 0.2002094 0.36385745 -0.2215589 0.06411298 -0.07438825 -0.07066491 0.31299862 0.076020315 -0.10263992 -0.22397558 -0.15389237 0.01216836 0.039106216 -0.16825524 -0.12962615 0.18573034 -0.12321174 0.59852093 0.1689682 -0.069252454 0.1282285 -0.55121833 0.12177805 0.04253069 0.19304785 -0.17112389 0.014726365
20 0.18194689 -0.10494205 -0.009037099 -0.070597954 0.039495986 0.08996906 -0.28211397 -0.04431501 -0.17727014 0.035898976 -0.237299 -0.001208836 -0.17629103 -0.0039295047 0.100834146 -0.37509853 -0.025102172 0.1461243 -0.26383203 -0.010088853 -0.07032546 -0.08351939 -0.13219109 0.053801447 -0.18714593 0.24735506 -0.030132929 0.014989658 0.1942696 -0.30869475 -0.24384686 0.16307451 0.15413152 -0.057291694 0.011698734 -0.10551187 -0.007642972 -0.03194839 0.14783695 0.27652147 0.06055054 0.048904542 0.15598492 -0.014280473 0.19075218 0.0716061 -0.14075914 0.01410166 0.09679846 0.23019761 0.0015851541 -0.19122079 0.15325147 0.083195925 0.036692686 0.013055227 -0.07475937 -0.15314719 0.0031490913 -0.08792993 -0.07372534 0.14187433 -0.0822524 0.13371791
13 0.13143249 -0.12577575 -0.020885743 -0.040614646 -0.021866523 0.070495285 -0.37419847 -0.08058793 -0.18509977 0.047415014 -0.25894165 0.016638743 -0.17797203 0.012121643 0.08381256 -0.41446307 -0.03238564 0.180472 -0.27350393 0.009498058 -0.069313884 -0.08533758 -0.20294058 0.045715723 -0.27042118 0.24449229 -0.08602787 -0.029260088 0.27945152 -0.37873608 -0.25977355 0.22404027 0.14707959 -0.10585548 0.063749716 -0.14568283 -0.06782228 -0.080622084 0.14505333 0.40626553 0.0017075111 0.009112523 0.2413327 -0.060289808 0.29277188 0.050019972 -0.12909593 0.01618738 0.051848423 0.23160914 0.060879413 -0.1474414 0.20450455 0.057052717 -0.021751553 0.019749084 -0.08268537 -0.26723877 0.041686293 -0.092288665 -0.11315342 0.11084225 -0.11590491 0.12973163
18 0.11927879 -0.21021204 -0.026340159 -0.003114821 -0.056816757 0.0669005 -0.35289758 -0.052336913 -0.1352174 0.060274683 -0.3270534 -0.0018559959 -0.20888317 0.00065820245 0.14099103 -0.45154697 -0.08749604 0.13097359 -0.2830464 -0.016946955 -0.051618166 -0.15621157 -0.19557042 0.081945874 -0.27613688 0.24326049 -0.03465147 0.023082472 0.26310468 -0.33835807 -0.2970434 0.1692651 0.10700842 -0.102971874 0.060282312 -0.14294417 -0.027798448 -0.02750128 0.12000881 0.36932302 0.048580315 0.042195592 0.24706094 -0.07404731 0.2946474 0.08970172 -0.10635898 0.07261872 0.055205822 0.26162168 0.12318953 -0.17059262 0.20689286 0.0058441404 -0.01527791 0.017643664 -0.07442278 -0.2335964 0.08029833 -0.14454882 -0.12914823 0.072621785 -0.066757455 0.18591775
22 0.12098613 -0.19579005 -0.024067027 -0.026563039 -0.06353204 0.0577588 -0.33728185 -0.044768374 -0.13625893 0.04983468 -0.3123373 0.0013067928 -0.19646536 0.003157822 0.13354902 -0.42723966 -0.07589797 0.12340943 -0.27132487 -0.015412475 -0.03199639 -0.12319499 -0.19490579 0.079046 -0.24674691 0.23486967 -0.0323364 0.01568124 0.24986956 -0.33771902 -0.28524727 0.1450022 0.096311346 -0.10984678 0.06382079 -0.1309782 -0.03747455 -0.030295517 0.10918693 0.32851622 0.035417534 0.033783633 0.24692954 -0.06731166 0.2829866 0.07189886 -0.09826792 0.060688287 0.06342779 0.25094143 0.11838711 -0.15436108 0.21851456 -0.0030380057 0.015866991 0.035503183 -0.050943717 -0.21362789 0.056646552 -0.13354117 -0.12589537 0.07280075 -0.068721965 0.16503476
17 0.13880116 -0.6162862 -0.07049481 0.1465293 -0.10358222 0.15392432 -0.28499493 0.26380244 0.12081749 0.07191116 -0.671648 -0.06073436 -0.25251102 -0.08689314 0.45897818 -0.64706475 -0.34809044 -0.1120321 -0.3819609 -0.11670151 0.127162 -0.69279766 -0.19286355 0.34610143 -0.370842 0.30317307 0.40332487 0.41638303 0.021521082 -0.104531735 -0.48904034 -0.2702102 -0.104936704 -0.13744964 -0.023501746 -0.07287453 0.2967097 0.38416788 0.1841222 0.015011909 0.40735668 0.29013613 0.23346223 -0.0955208 0.218442 0.28199026 0.056943897 0.28959244 0.25161153 0.47849327 0.38715154 -0.3858754 0.1366607 -0.19674629 0.066755995 0.02021616 0.0067165215 0.23335229 0.28762475 -0.32010332 -0.29188436 -0.0443601 0.2823817 0.44406483
23 0.38151282 0.111088455 0.061448596 -0.26393294 0.27964228 0.18725257 -0.16232665 -0.012491916 -0.2550708 -0.07051241 -0.069652796 -0.08618899 -0.14450315 -0.012188633 0.047623802 -0.39889562 0.12348063 0.13917397 -0.21146984 0.030008204 -0.11868619 0.083753794 -0.011229017 0.010410328 0.10955047 0.2516825 -0.04090436 -0.027387092 0.0153946355 -0.24750511 -0.14596692 0.17202114 0.31932807 0.08644173 -0.16348505 -0.012477315 0.035338435 0.062114608 0.29251528 -0.017148385 0.15843783 0.07055216 -0.058053005 0.21934274 -0.07068589 0.037809998 -0.2587971 -0.10715278 0.15863007 0.17663532 -0.29393685 -0.29583332 0.05418356 0.22184873 0.28179008 -0.010488545 -0.10739819 0.08565638 -0.2975365 0.08470009 0.025808481 0.32319376 -0.11271832 0.051187277
10 0.29935324 0.10139074 0.028275756 -0.19774814 0.19655205 0.14160888 -0.23491296 -0.08386452 -0.2993738 -0.005239928 -0.095930845 -0.015352864 -0.15201391 0.007590042 0.023549756 -0.34029865 0.09345926 0.20190415 -0.2423305 0.02470458 -0.16629386 0.07670754 -0.049612258 -0.019177105 -0.037543695 0.27851415 -0.09767588 -0.0487041 0.14803529 -0.33743995 -0.14854874 0.2824342 0.2876712 0.007382431 -0.06701436 -0.08478644 -0.012813057 -0.08336038 0.23047478 0.22453614 0.054184966 0.0079278 0.04200291 0.09368806 0.058589123 0.038670346 -0.24929045 -0.09488167 0.10923283 0.19514741 -0.22776778 -0.247079 0.09257643 0.2252441 0.12909196 -0.0052715857 -0.13140005 -0.121276 -0.1785801 0.018028634 0.011787346 0.26361567 -0.14494938 0.04349316
15 0.3823315 0.07428865 0.06024247 -0.23909394 0.29416418 0.21406077 -0.1437442 0.033432625 -0.22581224 -0.055712778 -0.0965873 -0.09235124 -0.1421465 -0.02665535 0.093766764 -0.38559377 0.09632381 0.115819275 -0.23046152 0.018896174 -0.119437 -0.0030086697 0.008994265 0.042380765 0.11116517 0.25501806 0.036711026 0.03409366 -0.040041283 -0.1863599 -0.15430611 0.12808956 0.28905985 0.10035002 -0.18902844 -0.008040545 0.10460096 0.10772168 0.2967622 -0.057082523 0.20226572 0.10023598 -0.09560353 0.20684014 -0.098574735 0.08581214 -0.24666396 -0.085006565 0.18615769 0.2071058 -0.29443496 -0.32957762 0.007518029 0.21114738 0.26417366 -0.0115111545 -0.119268976 0.16240163 -0.26176682 0.050076526 0.029295156 0.29028183 -0.05778136 0.06776794
19 0.38277042 0.115848504 0.047526456 -0.24778686 0.29780805 0.22243209 -0.15669851 0.0017503762 -0.263653 -0.04788924 -0.08483809 -0.08310182 -0.13884345 -0.022707714 0.05582721 -0.3951256 0.107371524 0.15562972 -0.23606783 0.029961754 -0.12578581 0.051858526 -0.0016726287 0.015770454 0.08234184 0.2862287 -0.00896497 -0.004852342 0.017564885 -0.24159752 -0.15293005 0.16138719 0.33054876 0.080914795 -0.15621361 -0.019407019 0.07432746 0.062693395 0.3146106 -0.0048389556 0.16899909 0.07315241 -0.060006373 0.20866203 -0.07314934 0.061447293 -0.25588313 -0.10662745 0.1708678 0.20008637 -0.29968548 -0.32591072 0.028080385 0.24370682 0.2625467 -0.005991973 -0.123916164 0.095233895 -0.26892614 0.07313377 0.017120592 0.31816545 -0.104597464 0.04854827
16 0.4373506 0.16950616 0.06204303 -0.29167387 0.379241 0.24804613 -0.09243968 -0.0014688206 -0.28100985 -0.055416204 -0.04679103 -0.08397957 -0.14189804 -0.035962626 0.05296423 -0.3570885 0.12283846 0.14305976 -0.233504 0.032279123 -0.16598 0.05890351 0.06944152 0.018533671 0.15009204 0.29413858 0.037828 0.042110823 -0.031511508 -0.22135729 -0.12022888 0.18368125 0.3299126 0.11900823 -0.19301806 -0.01092349 0.12468344 0.077352226 0.31200796 -0.07207822 0.205597 0.1111895 -0.13765003 0.23281085 -0.16716155 0.08031066 -0.28669563 -0.11575123 0.20343521 0.20749205 -0.38340798 -0.37193024 -0.015885156 0.31242704 0.27448803 -0.037933253 -0.13377096 0.15882793 -0.29956478 0.09010531 0.053641535 0.37421772 -0.08811234 0.04607719
21 0.36576566 0.106023036 0.033270415 -0.23322956 0.32684815 0.20741728 -0.13196312 -0.011454271 -0.24405512 -0.017332185 -0.0963105 -0.05101904 -0.16047956 -0.015587982 0.04772373 -0.3439297 0.07711388 0.15055327 -0.23989479 0.026171297 -0.16236447 0.016307982 0.056516193 0.024962006 0.0790984 0.2879445 0.030019626 0.049615324 0.029186964 -0.2237508 -0.13639538 0.20406668 0.2821234 0.07222538 -0.14170942 -0.033011507 0.09435827 0.03598033 0.2772058 0.026247693 0.18422876 0.09834666 -0.0652946 0.1825214 -0.08775679 0.07667783 -0.2706077 -0.09479923 0.19471192 0.22372994 -0.30233765 -0.3409439 0.017039256 0.28913122 0.19363864 -0.043135498 -0.12592407 0.081907436 -0.22748768 0.05713015 0.02036142 0.33459422 -0.085830495 0.07333937
27 0.39620385 0.16061401 0.060427975 -0.2952038 0.34758657 0.23273735 -0.15187407 -0.02202839 -0.2931427 -0.03656891 -0.04129662 -0.059524845 -0.15510985 -0.029541213 0.03274349 -0.35321274 0.15119393 0.18870258 -0.25447994 0.024017546 -0.16359513 0.07664282 0.035550244 0.010215341 0.10296007 0.30125234 -0.029563384 -0.0077124885 0.008788994 -0.27538717 -0.1240595 0.2214334 0.33189672 0.09219012 -0.16094755 -0.02874799 0.06387945 0.019523874 0.2936489 0.012653446 0.16906966 0.067182764 -0.099930204 0.19740684 -0.09656157 0.05877442 -0.27937925 -0.12505774 0.18420468 0.18668838 -0.35600612 -0.34763795 0.0033246737 0.29080755 0.2526661 -0.019792417 -0.13471007 0.08245894 -0.27117094 0.07445027 0.052860092 0.35472107 -0.1328676 0.03691434
12 0.083901286 -0.27179003 -0.032477316 0.02595943 -0.082795456 0.07004679 -0.3417121 0.00975178 -0.08024638 0.05694543 -0.34767237 -0.011861147 -0.17551582 -0.0010296431 0.17958853 -0.45067242 -0.11671612 0.09854151 -0.28521883 -0.009871164 -0.003113414 -0.23995066 -0.2175871 0.122402586 -0.31462216 0.21411087 0.02718734 0.07248363 0.21469046 -0.28012863 -0.32258055 0.072589174 0.066264816 -0.11939464 0.05428151 -0.12987627 0.013831504 0.0317824 0.13214333 0.30787095 0.06736221 0.06304988 0.251296 -0.07538941 0.29960552 0.090468645 -0.05467851 0.097160995 0.07739113 0.25996915 0.17479667 -0.17280342 0.18683724 -0.056532755 -0.021953186 0.03664005 -0.044300985 -0.15575805 0.12735309 -0.15691486 -0.16502325 0.027292548 -0.0126138665 0.20728213
